{"learner":{"attributes":{"scikit_learn":"{\"_estimator_type\": \"regressor\"}"},"feature_names":["Holiday_Flag","CPI","Unemployment","Fuel_Price","Clusters","Temperature"],"feature_types":["int","float","float","float","int","float"],"gradient_booster":{"model":{"gbtree_model_param":{"num_parallel_tree":"1","num_trees":"500"},"iteration_indptr":[0,1,2,3,4,5,6,7,8,9,10,11,12,13,14,15,16,17,18,19,20,21,22,23,24,25,26,27,28,29,30,31,32,33,34,35,36,37,38,39,40,41,42,43,44,45,46,47,48,49,50,51,52,53,54,55,56,57,58,59,60,61,62,63,64,65,66,67,68,69,70,71,72,73,74,75,76,77,78,79,80,81,82,83,84,85,86,87,88,89,90,91,92,93,94,95,96,97,98,99,100,101,102,103,104,105,106,107,108,109,110,111,112,113,114,115,116,117,118,119,120,121,122,123,124,125,126,127,128,129,130,131,132,133,134,135,136,137,138,139,140,141,142,143,144,145,146,147,148,149,150,151,152,153,154,155,156,157,158,159,160,161,162,163,164,165,166,167,168,169,170,171,172,173,174,175,176,177,178,179,180,181,182,183,184,185,186,187,188,189,190,191,192,193,194,195,196,197,198,199,200,201,202,203,204,205,206,207,208,209,210,211,212,213,214,215,216,217,218,219,220,221,222,223,224,225,226,227,228,229,230,231,232,233,234,235,236,237,238,239,240,241,242,243,244,245,246,247,248,249,250,251,252,253,254,255,256,257,258,259,260,261,262,263,264,265,266,267,268,269,270,271,272,273,274,275,276,277,278,279,280,281,282,283,284,285,286,287,288,289,290,291,292,293,294,295,296,297,298,299,300,301,302,303,304,305,306,307,308,309,310,311,312,313,314,315,316,317,318,319,320,321,322,323,324,325,326,327,328,329,330,331,332,333,334,335,336,337,338,339,340,341,342,343,344,345,346,347,348,349,350,351,352,353,354,355,356,357,358,359,360,361,362,363,364,365,366,367,368,369,370,371,372,373,374,375,376,377,378,379,380,381,382,383,384,385,386,387,388,389,390,391,392,393,394,395,396,397,398,399,400,401,402,403,404,405,406,407,408,409,410,411,412,413,414,415,416,417,418,419,420,421,422,423,424,425,426,427,428,429,430,431,432,433,434,435,436,437,438,439,440,441,442,443,444,445,446,447,448,449,450,451,452,453,454,455,456,457,458,459,460,461,462,463,464,465,466,467,468,469,470,471,472,473,474,475,476,477,478,479,480,481,482,483,484,485,486,487,488,489,490,491,492,493,494,495,496,497,498,499,500],"tree_info":[0,0,0,0,0,0,0,0,0,0,0,0,0,0,0,0,0,0,0,0,0,0,0,0,0,0,0,0,0,0,0,0,0,0,0,0,0,0,0,0,0,0,0,0,0,0,0,0,0,0,0,0,0,0,0,0,0,0,0,0,0,0,0,0,0,0,0,0,0,0,0,0,0,0,0,0,0,0,0,0,0,0,0,0,0,0,0,0,0,0,0,0,0,0,0,0,0,0,0,0,0,0,0,0,0,0,0,0,0,0,0,0,0,0,0,0,0,0,0,0,0,0,0,0,0,0,0,0,0,0,0,0,0,0,0,0,0,0,0,0,0,0,0,0,0,0,0,0,0,0,0,0,0,0,0,0,0,0,0,0,0,0,0,0,0,0,0,0,0,0,0,0,0,0,0,0,0,0,0,0,0,0,0,0,0,0,0,0,0,0,0,0,0,0,0,0,0,0,0,0,0,0,0,0,0,0,0,0,0,0,0,0,0,0,0,0,0,0,0,0,0,0,0,0,0,0,0,0,0,0,0,0,0,0,0,0,0,0,0,0,0,0,0,0,0,0,0,0,0,0,0,0,0,0,0,0,0,0,0,0,0,0,0,0,0,0,0,0,0,0,0,0,0,0,0,0,0,0,0,0,0,0,0,0,0,0,0,0,0,0,0,0,0,0,0,0,0,0,0,0,0,0,0,0,0,0,0,0,0,0,0,0,0,0,0,0,0,0,0,0,0,0,0,0,0,0,0,0,0,0,0,0,0,0,0,0,0,0,0,0,0,0,0,0,0,0,0,0,0,0,0,0,0,0,0,0,0,0,0,0,0,0,0,0,0,0,0,0,0,0,0,0,0,0,0,0,0,0,0,0,0,0,0,0,0,0,0,0,0,0,0,0,0,0,0,0,0,0,0,0,0,0,0,0,0,0,0,0,0,0,0,0,0,0,0,0,0,0,0,0,0,0,0,0,0,0,0,0,0,0,0,0,0,0,0,0,0,0,0,0,0,0,0,0,0,0,0,0,0,0,0,0,0,0,0,0,0,0,0,0,0,0,0,0,0,0,0,0,0,0,0,0,0,0,0,0,0,0,0,0,0,0,0,0,0,0,0,0,0,0,0,0,0,0,0,0,0,0,0,0],"trees":[{"base_weights":[-2.5218933E3,-5.2708175E5,3.7966166E5,-5.530097E5,-1.17387586E5,8.56301E5,1.3746198E5,-4.8738838E5,-6.318244E5,-1.3922277E5,-7.579958E4,9.352232E5,7.9894356E5,8.015318E4,2.3806422E5,-4.37381E5,-6.7304506E5,-6.8118E5,-5.95347E5,-1.4872634E3,8.366912E3,-1.091767E5,6.3011727E4,1.0946004E4,9.055544E5,7.6903606E5,9.28766E5,2.5923416E5,5.757782E4,-2.847456E4,3.5141438E5,-2.3021226E3,-4.808432E3,-8.514463E3,-4.237903E3,-7.9577505E3,-6.577547E3,-5.215936E3,-6.443982E3,-1.1038983E3,2.4169692E3,-1.4503379E3,-8.220361E2,-5.906823E2,1.4807334E3,8.902761E3,1.1555636E4,7.784362E3,4.840168E3,6.4302354E3,1.0151784E4,1.8974169E3,3.122161E3,3.809495E2,2.286513E3,-2.2775588E3,1.2229374E3,6.098308E3,3.4322466E3],"categories":[],"categories_nodes":[],"categories_segments":[],"categories_sizes":[],"default_left":[0,0,0,0,0,0,0,0,0,0,0,0,0,0,0,0,0,0,0,0,0,0,0,0,0,0,0,0,0,0,0,0,0,0,0,0,0,0,0,0,0,0,0,0,0,0,0,0,0,0,0,0,0,0,0,0,0,0,0],"id":0,"left_children":[1,3,5,7,9,11,13,15,17,19,21,23,25,27,29,31,33,35,37,-1,39,41,43,-1,45,47,49,51,53,55,57,-1,-1,-1,-1,-1,-1,-1,-1,-1,-1,-1,-1,-1,-1,-1,-1,-1,-1,-1,-1,-1,-1,-1,-1,-1,-1,-1,-1],"loss_changes":[8.2095756E14,1.8269616E13,2.7336413E14,8.086081E12,8.388752E10,2.865213E12,9.044119E12,7.9685736E12,9.159353E11,9.522066E10,1.8293804E11,5.692174E11,1.1067258E12,4.0400191E12,1.7230966E13,6.228122E12,7.954556E12,2.9532933E11,1.2195023E12,0E0,1.6522845E11,1.8060182E10,9.1821E10,0E0,5.6019124E10,6.600828E11,1.3966277E12,3.5312684E11,2.9643285E12,5.165601E12,6.372364E11,0E0,0E0,0E0,0E0,0E0,0E0,0E0,0E0,0E0,0E0,0E0,0E0,0E0,0E0,0E0,0E0,0E0,0E0,0E0,0E0,0E0,0E0,0E0,0E0,0E0,0E0,0E0,0E0],"parents":[2147483647,0,0,1,1,2,2,3,3,4,4,5,5,6,6,7,7,8,8,9,9,10,10,11,11,12,12,13,13,14,14,15,15,16,16,17,17,18,18,20,20,21,21,22,22,24,24,25,25,26,26,27,27,28,28,29,29,30,30],"right_children":[2,4,6,8,10,12,14,16,18,20,22,24,26,28,30,32,34,36,38,-1,40,42,44,-1,46,48,50,52,54,56,58,-1,-1,-1,-1,-1,-1,-1,-1,-1,-1,-1,-1,-1,-1,-1,-1,-1,-1,-1,-1,-1,-1,-1,-1,-1,-1,-1,-1],"split_conditions":[2E0,1.0641E1,3E0,2.0926915E2,1.2980519E2,7.489E0,2.0387703E2,1E0,6.855E0,1E0,1.289E1,5.277E0,8.687E0,5.936E0,6.442E0,1.3114996E2,1.3158661E2,2.1371434E2,1E0,-1.4872634E3,1.4313E1,1.1627E1,1.2985553E2,1.0946004E4,7.484E0,8.659E0,1.2643642E2,1.3468039E2,1.1627E1,2.211484E2,6.56E0,-2.3021226E3,-4.808432E3,-8.514463E3,-4.237903E3,-7.9577505E3,-6.577547E3,-5.215936E3,-6.443982E3,-1.1038983E3,2.4169692E3,-1.4503379E3,-8.220361E2,-5.906823E2,1.4807334E3,8.902761E3,1.1555636E4,7.784362E3,4.840168E3,6.4302354E3,1.0151784E4,1.8974169E3,3.122161E3,3.809495E2,2.286513E3,-2.2775588E3,1.2229374E3,6.098308E3,3.4322466E3],"split_indices":[4,2,4,1,1,2,1,4,2,0,2,2,2,2,2,1,1,1,4,0,2,2,1,0,2,2,1,1,2,1,2,0,0,0,0,0,0,0,0,0,0,0,0,0,0,0,0,0,0,0,0,0,0,0,0,0,0,0,0],"split_type":[0,0,0,0,0,0,0,0,0,0,0,0,0,0,0,0,0,0,0,0,0,0,0,0,0,0,0,0,0,0,0,0,0,0,0,0,0,0,0,0,0,0,0,0,0,0,0,0,0,0,0,0,0,0,0,0,0,0,0],"sum_hessian":[4.093E3,1.725E3,2.368E3,1.622E3,1.03E2,7.97E2,1.571E3,8.89E2,7.33E2,6.6E1,3.7E1,3.29E2,4.68E2,1.002E3,5.69E2,7.03E2,1.86E2,3.04E2,4.29E2,6.2E1,4E0,3E1,7E0,4.6E1,2.83E2,3.86E2,8.2E1,1.11E2,8.91E2,1.7E2,3.99E2,1.23E2,5.8E2,1.07E2,7.9E1,4.6E1,2.58E2,1.76E2,2.53E2,3E0,1E0,1.1E1,1.9E1,3E0,4E0,2.71E2,1.2E1,3.72E2,1.4E1,2.1E1,6.1E1,5E1,6.1E1,8.01E2,9E1,7.3E1,9.7E1,1E1,3.89E2],"tree_param":{"num_deleted":"0","num_feature":"6","num_nodes":"59","size_leaf_vector":"1"}},{"base_weights":[-3.6285894E3,-5.1827053E5,3.72257E5,-4.6468544E5,-6.702336E5,8.464765E5,1.3280473E5,-5.832376E5,-4.3960103E5,-4.9887484E5,-7.0716156E5,9.508615E5,8.0150756E5,1.181358E5,2.1642689E5,-5.9450256E5,-4.321839E5,-4.4377247E5,-1.8703544E5,-5.525716E5,-4.1342144E5,-6.0807244E5,-7.339796E5,9.73365E5,7.333961E5,8.177769E5,6.6452847E3,1.6904457E4,1.2697473E5,2.2755827E5,1.1862359E5,-5.972469E3,-2.1246094E3,-5.408404E3,-2.8030906E3,-4.483781E3,-2.0923052E3,-2.195944E3,-1.2645939E3,-3.8141536E3,-6.0524634E3,-8.296021E2,-4.304203E3,-6.1409375E3,-2.4080022E3,-6.897528E3,-7.9388135E3,5.7064395E3,9.844957E3,3.8515093E3,7.7920654E3,8.298296E3,6.8749404E3,1.0604775E3,-8.655356E2,1.610344E3,9.3039655E2,1.9892018E3,2.8528494E3,7.174156E1,1.3284855E3],"categories":[],"categories_nodes":[],"categories_segments":[],"categories_sizes":[],"default_left":[0,0,0,0,0,0,0,0,0,0,0,0,0,0,0,0,0,0,0,0,0,0,0,0,0,0,0,0,0,0,0,0,0,0,0,0,0,0,0,0,0,0,0,0,0,0,0,0,0,0,0,0,0,0,0,0,0,0,0,0,0],"id":1,"left_children":[1,3,5,7,9,11,13,15,17,19,21,23,25,27,29,31,33,35,37,39,41,43,45,47,49,51,-1,53,55,57,59,-1,-1,-1,-1,-1,-1,-1,-1,-1,-1,-1,-1,-1,-1,-1,-1,-1,-1,-1,-1,-1,-1,-1,-1,-1,-1,-1,-1,-1,-1],"loss_changes":[7.933236E14,1.3783959E13,2.6900803E14,3.559018E12,2.488447E12,2.9697014E12,1.9076303E12,1.1912662E11,1.0369326E12,1.5240633E11,5.289353E11,4.312751E11,7.0900515E11,1.1995374E12,2.2776014E11,8.594129E10,1.6193893E11,1.03498646E12,9.70385E9,2.0189807E11,1.6652121E11,3.7889245E10,2.0481625E11,3.7507144E11,1.1467332E11,2.1152714E11,0E0,1.0144411E12,1.4124528E12,2.8876525E11,4.0266433E10,0E0,0E0,0E0,0E0,0E0,0E0,0E0,0E0,0E0,0E0,0E0,0E0,0E0,0E0,0E0,0E0,0E0,0E0,0E0,0E0,0E0,0E0,0E0,0E0,0E0,0E0,0E0,0E0,0E0,0E0],"parents":[2147483647,0,0,1,1,2,2,3,3,4,4,5,5,6,6,7,7,8,8,9,9,10,10,11,11,12,12,13,13,14,14,15,15,16,16,17,17,18,18,19,19,20,20,21,21,22,22,23,23,24,24,25,25,27,27,28,28,29,29,30,30],"right_children":[2,4,6,8,10,12,14,16,18,20,22,24,26,28,30,32,34,36,38,40,42,44,46,48,50,52,-1,54,56,58,60,-1,-1,-1,-1,-1,-1,-1,-1,-1,-1,-1,-1,-1,-1,-1,-1,-1,-1,-1,-1,-1,-1,-1,-1,-1,-1,-1,-1,-1,-1],"split_conditions":[2E0,1E0,3E0,2.781E0,5.099E1,5.056E1,7.895E1,1E0,9.165E1,3.353E0,2.909E0,3.699E0,3.963E0,2.719E0,3.787E0,8.84E1,2.577E0,4.17E0,3.686E0,3.244E1,3.4E0,2.869E0,7.814E1,2.407E1,3.804E1,8.476E1,6.6452847E3,6.45E1,3.514E0,8.653E1,3.807E0,-5.972469E3,-2.1246094E3,-5.408404E3,-2.8030906E3,-4.483781E3,-2.0923052E3,-2.195944E3,-1.2645939E3,-3.8141536E3,-6.0524634E3,-8.296021E2,-4.304203E3,-6.1409375E3,-2.4080022E3,-6.897528E3,-7.9388135E3,5.7064395E3,9.844957E3,3.8515093E3,7.7920654E3,8.298296E3,6.8749404E3,1.0604775E3,-8.655356E2,1.610344E3,9.3039655E2,1.9892018E3,2.8528494E3,7.174156E1,1.3284855E3],"split_indices":[4,4,4,3,5,5,5,0,5,3,3,3,3,3,3,5,3,3,3,5,3,3,5,5,5,5,0,5,3,5,3,0,0,0,0,0,0,0,0,0,0,0,0,0,0,0,0,0,0,0,0,0,0,0,0,0,0,0,0,0,0],"split_type":[0,0,0,0,0,0,0,0,0,0,0,0,0,0,0,0,0,0,0,0,0,0,0,0,0,0,0,0,0,0,0,0,0,0,0,0,0,0,0,0,0,0,0,0,0,0,0,0,0,0,0,0,0,0,0,0,0,0,0,0,0],"sum_hessian":[4.099E3,1.73E3,2.369E3,1.282E3,4.48E2,7.94E2,1.575E3,2.2E2,1.062E3,8.2E1,3.66E2,2.33E2,5.61E2,1.342E3,2.33E2,2.02E2,1.8E1,1.044E3,1.8E1,4.7E1,3.5E1,8.3E1,2.83E2,2.08E2,2.5E1,4.97E2,6.4E1,1.08E2,1.234E3,2.08E2,2.5E1,2E2,2E0,9E0,9E0,1.023E3,2.1E1,1E1,8E0,1.3E1,3.4E1,2E0,3.3E1,8.1E1,2E0,1.7E2,1.13E2,7E0,2.01E2,4E0,2.1E1,4.5E2,4.7E1,5.8E1,5E1,6.14E2,6.2E2,1.42E2,6.6E1,3E0,2.2E1],"tree_param":{"num_deleted":"0","num_feature":"6","num_nodes":"61","size_leaf_vector":"1"}},{"base_weights":[-2.2494885E3,-5.103377E5,3.628665E5,-5.400605E5,-1.081627E5,8.345214E5,1.2903187E5,-4.9436103E5,-6.5575594E5,2.9937737E3,-1.423976E5,9.118822E5,7.748256E5,1.8450803E5,3.86134E4,-5.501777E5,-4.2216962E5,-4.5407325E5,-6.931684E5,-2.2120834E4,1.6549028E5,-1.0531772E5,-1.5410803E5,1.02294856E6,8.5672706E5,7.406899E5,9.114883E5,7.604455E4,2.271426E5,1.7198676E2,2.1622538E5,-5.0297563E3,-6.5604204E3,-3.8947358E3,-5.5036675E3,-3.931144E3,-5.7751807E3,-6.7029175E3,-8.258075E3,3.4066702E2,-6.5596136E2,-3.215E0,2.2086804E3,-2.0606969E2,-1.159325E3,-1.397923E3,-1.807604E3,5.0123657E3,1.0383428E4,9.459906E3,8.10646E3,7.5212744E3,4.7714243E3,9.64836E3,6.1778955E3,1.7446356E3,-1.5965436E3,3.5029478E3,1.7660024E3,3.253876E2,-1.1355066E3,3.1707222E3,1.5920558E3],"categories":[],"categories_nodes":[],"categories_segments":[],"categories_sizes":[],"default_left":[0,0,0,0,0,0,0,0,0,0,0,0,0,0,0,0,0,0,0,0,0,0,0,0,0,0,0,0,0,0,0,0,0,0,0,0,0,0,0,0,0,0,0,0,0,0,0,0,0,0,0,0,0,0,0,0,0,0,0,0,0,0,0],"id":2,"left_children":[1,3,5,7,9,11,13,15,17,19,21,23,25,27,29,31,33,35,37,39,41,43,45,47,49,51,53,55,57,59,61,-1,-1,-1,-1,-1,-1,-1,-1,-1,-1,-1,-1,-1,-1,-1,-1,-1,-1,-1,-1,-1,-1,-1,-1,-1,-1,-1,-1,-1,-1,-1,-1],"loss_changes":[7.591112E14,2.0394484E13,2.6249099E14,8.098362E12,4.5327254E11,2.93712E12,7.983474E12,4.385514E12,3.0656168E12,1.2201083E11,2.3283761E10,1.1941519E12,1.4334789E12,4.5469066E12,4.1443493E12,2.8830975E12,1.8981742E12,3.222987E11,5.873703E11,6.5746678E10,3.6800143E10,2.009065E10,2.9478093E8,3.3889976E11,1.8743506E11,7.474082E11,7.514012E11,6.5230854E12,4.3450137E12,1.8441123E12,5.705491E11,0E0,0E0,0E0,0E0,0E0,0E0,0E0,0E0,0E0,0E0,0E0,0E0,0E0,0E0,0E0,0E0,0E0,0E0,0E0,0E0,0E0,0E0,0E0,0E0,0E0,0E0,0E0,0E0,0E0,0E0,0E0,0E0],"parents":[2147483647,0,0,1,1,2,2,3,3,4,4,5,5,6,6,7,7,8,8,9,9,10,10,11,11,12,12,13,13,14,14,15,15,16,16,17,17,18,18,19,19,20,20,21,21,22,22,23,23,24,24,25,25,26,26,27,27,28,28,29,29,30,30],"right_children":[2,4,6,8,10,12,14,16,18,20,22,24,26,28,30,32,34,36,38,40,42,44,46,48,50,52,54,56,58,60,62,-1,-1,-1,-1,-1,-1,-1,-1,-1,-1,-1,-1,-1,-1,-1,-1,-1,-1,-1,-1,-1,-1,-1,-1,-1,-1,-1,-1,-1,-1,-1,-1],"split_conditions":[2E0,1.0641E1,3E0,1E0,5.327E1,7.545E0,8.237E0,7.808E0,4.796E1,5.27E1,1.289E1,5.043E1,8.687E0,6.442E0,1.1627E1,7.087E1,9.269E0,7.866E0,8.572E0,4.796E1,1.289E1,6.43E1,1.418E1,2.34E1,6.034E0,8.659E0,8.151E1,6.232E0,7.372E0,9.357E0,5.468E1,-5.0297563E3,-6.5604204E3,-3.8947358E3,-5.5036675E3,-3.931144E3,-5.7751807E3,-6.7029175E3,-8.258075E3,3.4066702E2,-6.5596136E2,-3.215E0,2.2086804E3,-2.0606969E2,-1.159325E3,-1.397923E3,-1.807604E3,5.0123657E3,1.0383428E4,9.459906E3,8.10646E3,7.5212744E3,4.7714243E3,9.64836E3,6.1778955E3,1.7446356E3,-1.5965436E3,3.5029478E3,1.7660024E3,3.253876E2,-1.1355066E3,3.1707222E3,1.5920558E3],"split_indices":[4,2,4,4,5,2,2,2,5,5,2,5,2,2,2,5,2,2,2,5,2,5,2,5,2,2,5,2,2,2,5,0,0,0,0,0,0,0,0,0,0,0,0,0,0,0,0,0,0,0,0,0,0,0,0,0,0,0,0,0,0,0,0],"split_type":[0,0,0,0,0,0,0,0,0,0,0,0,0,0,0,0,0,0,0,0,0,0,0,0,0,0,0,0,0,0,0,0,0,0,0,0,0,0,0,0,0,0,0,0,0,0,0,0,0,0,0,0,0,0,0,0,0,0,0,0,0,0,0],"sum_hessian":[4.09E3,1.71E3,2.38E3,1.592E3,1.18E2,7.88E2,1.592E3,1.145E3,4.47E2,2.8E1,9E1,3.37E2,4.51E2,9.86E2,6.06E2,6.42E2,5.03E2,7.2E1,3.75E2,2.5E1,3E0,2.4E1,6.6E1,1.06E2,2.31E2,3.66E2,8.5E1,2.79E2,7.07E2,4.99E2,1.07E2,4.48E2,1.94E2,4.04E2,9.9E1,5.1E1,2.1E1,3.25E2,5E1,1.1E1,1.4E1,1E0,2E0,3E0,2.1E1,4.7E1,1.9E1,4E0,1.02E2,7.2E1,1.59E2,3.49E2,1.7E1,7E1,1.5E1,1.97E2,8.2E1,2.04E2,5.03E2,3.89E2,1.1E2,3.7E1,7E1],"tree_param":{"num_deleted":"0","num_feature":"6","num_nodes":"63","size_leaf_vector":"1"}},{"base_weights":[-6.33907E3,-5.0857294E5,3.5877162E5,-4.579526E5,-6.471711E5,8.3200525E5,1.2429944E5,-5.7805894E5,-4.355996E5,-4.5046088E5,-6.805619E5,8.5280075E5,6.33788E5,1.1367258E5,2.1909783E5,-5.8216035E3,-2.3462578E3,-3.827627E5,-4.5796622E5,-5.193266E5,-3.858284E5,-6.340098E5,-7.410458E5,9.401019E5,8.103569E5,1.8412094E3,6.3719243E3,6.0692957E4,1.27339484E5,2.4905955E5,1.3699438E5,-3.9725986E3,-1.9965054E3,-4.7435557E3,-3.3802012E3,-5.272616E3,-1.406378E3,4.3699353E2,-4.095851E3,-6.362908E3,-2.5008042E3,-6.149576E3,-7.6675903E3,9.922969E3,7.40521E3,8.243095E3,6.8321255E3,2.2320742E3,4.4277515E2,2.0587512E3,1.0466915E3,2.555959E3,5.283302E2,1.0940944E3,2.9806152E3],"categories":[],"categories_nodes":[],"categories_segments":[],"categories_sizes":[],"default_left":[0,0,0,0,0,0,0,0,0,0,0,0,0,0,0,0,0,0,0,0,0,0,0,0,0,0,0,0,0,0,0,0,0,0,0,0,0,0,0,0,0,0,0,0,0,0,0,0,0,0,0,0,0,0,0],"id":3,"left_children":[1,3,5,7,9,11,13,15,17,19,21,23,25,27,29,-1,-1,31,33,35,37,39,41,43,45,-1,-1,47,49,51,53,-1,-1,-1,-1,-1,-1,-1,-1,-1,-1,-1,-1,-1,-1,-1,-1,-1,-1,-1,-1,-1,-1,-1,-1],"loss_changes":[7.562209E14,1.1883235E13,2.6486932E14,3.1712294E12,2.7279753E12,2.7200565E12,1.5849352E12,1.4089506E11,1.099864E12,1.1119624E11,6.367289E11,1.8801555E12,3.61549E9,1.0342042E12,3.5947387E11,0E0,0E0,7.8874726E11,1.3199307E12,1.8999149E10,4.2606526E11,4.1414558E10,6.3426265E10,1.629873E12,3.0071482E11,0E0,0E0,7.8243765E11,2.0134819E12,1.3527889E11,1.673254E11,0E0,0E0,0E0,0E0,0E0,0E0,0E0,0E0,0E0,0E0,0E0,0E0,0E0,0E0,0E0,0E0,0E0,0E0,0E0,0E0,0E0,0E0,0E0,0E0],"parents":[2147483647,0,0,1,1,2,2,3,3,4,4,5,5,6,6,7,7,8,8,9,9,10,10,11,11,12,12,13,13,14,14,17,17,18,18,19,19,20,20,21,21,22,22,23,23,24,24,27,27,28,28,29,29,30,30],"right_children":[2,4,6,8,10,12,14,16,18,20,22,24,26,28,30,-1,-1,32,34,36,38,40,42,44,46,-1,-1,48,50,52,54,-1,-1,-1,-1,-1,-1,-1,-1,-1,-1,-1,-1,-1,-1,-1,-1,-1,-1,-1,-1,-1,-1,-1,-1],"split_conditions":[2E0,1E0,3E0,2.771E0,4.734E1,3.963E0,8.23E1,8.84E1,3.243E0,3.132E0,7.357E1,5.056E1,4.043E1,2.836E0,3.651E0,-5.8216035E3,-2.3462578E3,7.72E1,3.95E0,4.684E1,3.153E0,7.339E1,2.831E0,3.554E0,8.476E1,1.8412094E3,6.3719243E3,2.582E0,3.176E0,9.271E1,1E0,-3.9725986E3,-1.9965054E3,-4.7435557E3,-3.3802012E3,-5.272616E3,-1.406378E3,4.3699353E2,-4.095851E3,-6.362908E3,-2.5008042E3,-6.149576E3,-7.6675903E3,9.922969E3,7.40521E3,8.243095E3,6.8321255E3,2.2320742E3,4.4277515E2,2.0587512E3,1.0466915E3,2.555959E3,5.283302E2,1.0940944E3,2.9806152E3],"split_indices":[4,4,4,3,5,3,5,5,3,3,5,5,5,3,3,0,0,5,3,5,3,5,3,3,5,0,0,3,3,5,0,0,0,0,0,0,0,0,0,0,0,0,0,0,0,0,0,0,0,0,0,0,0,0,0],"split_type":[0,0,0,0,0,0,0,0,0,0,0,0,0,0,0,0,0,0,0,0,0,0,0,0,0,0,0,0,0,0,0,0,0,0,0,0,0,0,0,0,0,0,0,0,0,0,0,0,0,0,0,0,0,0,0],"sum_hessian":[4.122E3,1.735E3,2.387E3,1.274E3,4.61E2,7.9E2,1.597E3,1.96E2,1.078E3,6.9E1,3.92E2,7.12E2,7.8E1,1.438E3,1.59E2,1.93E2,3E0,3.26E2,7.52E2,3E1,3.9E1,2.28E2,1.64E2,2.26E2,4.86E2,1E0,7.7E1,2.96E2,1.142E3,1.15E2,4.4E1,3.01E2,2.5E1,6.59E2,9.3E1,2.9E1,1E0,2E0,3.7E1,2.26E2,2E0,3.2E1,1.32E2,1.76E2,5E1,4.33E2,5.3E1,2.6E1,2.7E2,2.54E2,8.88E2,1.11E2,4E0,3.9E1,5E0],"tree_param":{"num_deleted":"0","num_feature":"6","num_nodes":"55","size_leaf_vector":"1"}},{"base_weights":[-4.5963286E3,-5.0801812E5,3.596633E5,-3.9273084E5,-5.8557225E5,8.2804856E5,1.3133481E5,-3.0280906E5,-8.220014E3,-5.2655594E5,-6.263477E5,8.572839E5,7.239572E5,7.49626E4,2.3244102E5,-1.4453031E5,-4.014401E5,-5.751225E3,-5.0721503E5,-6.2929125E5,-3.6051853E3,7.4224287E3,8.771023E5,6.617044E5,8.0933184E3,-3.0075844E4,9.425789E4,3.6619153E5,1.9045852E5,-1.9988892E3,-1.1076514E3,-4.9319175E3,-3.5010044E3,-4.727558E3,-5.522699E3,-6.826376E3,-6.120318E3,1.2284554E4,8.640787E3,7.0942686E3,5.123874E3,-1.8131909E3,7.098659E1,1.1742067E3,1.2028256E1,2.725885E3,4.2200547E3,-1.1804417E2,2.3383298E3],"categories":[],"categories_nodes":[],"categories_segments":[],"categories_sizes":[],"default_left":[0,0,0,0,0,0,0,0,0,0,0,0,0,0,0,0,0,0,0,0,0,0,0,0,0,0,0,0,0,0,0,0,0,0,0,0,0,0,0,0,0,0,0,0,0,0,0,0,0],"id":4,"left_children":[1,3,5,7,9,11,13,15,-1,17,19,21,23,25,27,29,31,-1,33,35,-1,-1,37,39,-1,41,43,45,47,-1,-1,-1,-1,-1,-1,-1,-1,-1,-1,-1,-1,-1,-1,-1,-1,-1,-1,-1,-1],"loss_changes":[7.5917694E14,1.5309545E13,2.5677489E14,2.684883E13,2.165603E12,1.7743248E12,9.193096E12,9.027702E12,0E0,1.1218924E11,2.4887322E11,7.374593E11,4.1580652E11,2.108625E12,3.1758326E12,3.9842847E11,1.5136866E12,0E0,2.295207E11,1.3462038E11,0E0,0E0,1.2904699E12,4.1321444E11,0E0,9.121148E11,1.8923122E12,6.00704E11,3.8804495E12,0E0,0E0,0E0,0E0,0E0,0E0,0E0,0E0,0E0,0E0,0E0,0E0,0E0,0E0,0E0,0E0,0E0,0E0,0E0,0E0],"parents":[2147483647,0,0,1,1,2,2,3,3,4,4,5,5,6,6,7,7,9,9,10,10,11,11,12,12,13,13,14,14,15,15,16,16,18,18,19,19,22,22,23,23,25,25,26,26,27,27,28,28],"right_children":[2,4,6,8,10,12,14,16,-1,18,20,22,24,26,28,30,32,-1,34,36,-1,-1,38,40,-1,42,44,46,48,-1,-1,-1,-1,-1,-1,-1,-1,-1,-1,-1,-1,-1,-1,-1,-1,-1,-1,-1,-1],"split_conditions":[2E0,1.8167726E2,3E0,1E0,2.1153125E2,3.765E0,2.0387703E2,1.3114996E2,-8.220014E3,1.9309305E2,3.936E0,1.266072E2,1.8167726E2,2.836E0,2.1347252E2,3.161E0,1.3526527E2,-5.751225E3,2.0926915E2,3.1E0,-3.6051853E3,7.4224287E3,1.2719177E2,1.4023102E2,8.0933184E3,1.266072E2,1.3849593E2,2.1133337E2,3.017E0,-1.9988892E3,-1.1076514E3,-4.9319175E3,-3.5010044E3,-4.727558E3,-5.522699E3,-6.826376E3,-6.120318E3,1.2284554E4,8.640787E3,7.0942686E3,5.123874E3,-1.8131909E3,7.098659E1,1.1742067E3,1.2028256E1,2.725885E3,4.2200547E3,-1.1804417E2,2.3383298E3],"split_indices":[4,1,4,4,1,3,1,1,0,1,3,1,1,3,1,3,1,0,1,3,0,0,1,1,0,1,1,1,3,0,0,0,0,0,0,0,0,0,0,0,0,0,0,0,0,0,0,0,0],"split_type":[0,0,0,0,0,0,0,0,0,0,0,0,0,0,0,0,0,0,0,0,0,0,0,0,0,0,0,0,0,0,0,0,0,0,0,0,0,0,0,0,0,0,0,0,0,0,0,0,0],"sum_hessian":[4.138E3,1.737E3,2.401E3,7.01E2,1.036E3,7.86E2,1.615E3,5.81E2,1.2E2,4.29E2,6.07E2,6.08E2,1.78E2,1.038E3,5.77E2,2.24E2,3.57E2,1.14E2,3.15E2,5.99E2,8E0,9.5E1,5.13E2,1.08E2,7E1,1.61E2,8.77E2,1.36E2,4.41E2,8.3E1,1.41E2,1.25E2,2.32E2,1.85E2,1.3E2,1.37E2,4.62E2,1.5E1,4.98E2,7.9E1,2.9E1,3.1E1,1.3E2,7.02E2,1.75E2,5.3E1,8.3E1,7.8E1,3.63E2],"tree_param":{"num_deleted":"0","num_feature":"6","num_nodes":"49","size_leaf_vector":"1"}},{"base_weights":[3.9557437E3,-4.991695E5,3.6479612E5,-5.281429E5,-8.9705984E4,8.186771E5,1.3234169E5,-4.8285872E5,-6.357848E5,3.303244E4,-1.3147862E5,9.26215E5,7.706613E5,1.9418586E5,2.6157578E4,-3.571911E5,-5.672224E5,-8.1096367E3,-5.785454E5,-1.9122598E4,1.7884912E5,-1.4589093E3,-8.292046E4,1.0237979E6,8.327354E5,9.305478E3,7.455759E5,8.654951E4,2.336617E5,-8.922702E3,1.7975589E5,-3.0819167E3,-5.416921E3,-6.1305586E3,-4.426894E3,-3.9596345E3,-6.2360645E3,-1.227305E3,1.647574E2,2.592146E3,3.368E2,-3.0432303E2,-1.1073995E3,4.804723E3,1.0339705E4,4.141126E3,8.676582E3,7.236027E3,8.611041E3,1.8231621E3,-1.6615175E3,9.428333E2,3.4541218E3,-1.4793551E3,3.5020694E2,2.6813599E3,1.3611509E3],"categories":[],"categories_nodes":[],"categories_segments":[],"categories_sizes":[],"default_left":[0,0,0,0,0,0,0,0,0,0,0,0,0,0,0,0,0,0,0,0,0,0,0,0,0,0,0,0,0,0,0,0,0,0,0,0,0,0,0,0,0,0,0,0,0,0,0,0,0,0,0,0,0,0,0,0,0],"id":5,"left_children":[1,3,5,7,9,11,13,15,17,19,21,23,25,27,29,31,33,-1,35,37,39,-1,41,43,45,-1,47,49,51,53,55,-1,-1,-1,-1,-1,-1,-1,-1,-1,-1,-1,-1,-1,-1,-1,-1,-1,-1,-1,-1,-1,-1,-1,-1,-1,-1],"loss_changes":[7.4852254E14,2.0381633E13,2.5321315E14,7.5311245E12,5.939605E11,3.4841244E12,1.0429676E13,1.184099E13,4.2736602E12,2.315723E11,4.808848E10,1.391452E12,1.5843732E12,4.2458059E12,3.1591314E12,3.9826217E12,3.5984947E12,0E0,2.7149143E12,8.685227E10,8.460237E10,0E0,2.8754199E10,1.4434278E11,1.5558435E12,0E0,6.360075E11,6.5885926E12,1.1399925E13,2.9251372E12,3.8391356E11,0E0,0E0,0E0,0E0,0E0,0E0,0E0,0E0,0E0,0E0,0E0,0E0,0E0,0E0,0E0,0E0,0E0,0E0,0E0,0E0,0E0,0E0,0E0,0E0,0E0,0E0],"parents":[2147483647,0,0,1,1,2,2,3,3,4,4,5,5,6,6,7,7,8,8,9,9,10,10,11,11,12,12,13,13,14,14,15,15,16,16,18,18,19,19,20,20,22,22,23,23,24,24,26,26,27,27,28,28,29,29,30,30],"right_children":[2,4,6,8,10,12,14,16,18,20,22,24,26,28,30,32,34,-1,36,38,40,-1,42,44,46,-1,48,50,52,54,56,-1,-1,-1,-1,-1,-1,-1,-1,-1,-1,-1,-1,-1,-1,-1,-1,-1,-1,-1,-1,-1,-1,-1,-1,-1,-1],"split_conditions":[2E0,1.0641E1,3E0,1E0,5.327E1,5.043E1,8.237E0,1.8167726E2,1.3158661E2,5.183E1,1.3073787E2,7.806E0,6.034E0,6.442E0,1.0926E1,9.269E0,7.598E0,-8.1096367E3,2.0926915E2,1.289E1,1.2985553E2,-1.4589093E3,7.745E1,2.34E1,7.838E0,9.305478E3,8.687E0,6.232E0,2.1028317E2,1.3114996E2,6.412E1,-3.0819167E3,-5.416921E3,-6.1305586E3,-4.426894E3,-3.9596345E3,-6.2360645E3,-1.227305E3,1.647574E2,2.592146E3,3.368E2,-3.0432303E2,-1.1073995E3,4.804723E3,1.0339705E4,4.141126E3,8.676582E3,7.236027E3,8.611041E3,1.8231621E3,-1.6615175E3,9.428333E2,3.4541218E3,-1.4793551E3,3.5020694E2,2.6813599E3,1.3611509E3],"split_indices":[4,2,4,4,5,5,2,1,1,5,1,2,2,2,2,2,2,0,1,2,1,0,5,5,2,0,2,2,1,1,5,0,0,0,0,0,0,0,0,0,0,0,0,0,0,0,0,0,0,0,0,0,0,0,0,0,0],"split_type":[0,0,0,0,0,0,0,0,0,0,0,0,0,0,0,0,0,0,0,0,0,0,0,0,0,0,0,0,0,0,0,0,0,0,0,0,0,0,0,0,0,0,0,0,0,0,0,0,0,0,0,0,0,0,0,0,0],"sum_hessian":[4.121E3,1.721E3,2.4E3,1.607E3,1.14E2,8.12E2,1.588E3,1.135E3,4.72E2,2.9E1,8.5E1,2.45E2,5.67E2,1.003E3,5.85E2,4.58E2,6.77E2,1.13E2,3.59E2,2.2E1,7E0,6.4E1,2.1E1,1.15E2,1.3E2,7.2E1,4.95E2,2.7E2,7.33E2,4.77E2,1.08E2,3.64E2,9.4E1,4.92E2,1.85E2,7.3E1,2.86E2,5E0,1.7E1,4E0,3E0,8E0,1.3E1,3E0,1.12E2,1.1E1,1.19E2,4.22E2,7.3E1,1.96E2,7.4E1,3.27E2,4.06E2,1.14E2,3.63E2,3.4E1,7.4E1],"tree_param":{"num_deleted":"0","num_feature":"6","num_nodes":"57","size_leaf_vector":"1"}},{"base_weights":[-3.6533548E2,1.1184574E5,-1.178083E5,8.014749E4,9.257572E3,-3.6700822E5,-6.3525137E3,5.1311744E5,1.6049086E4,-5.634327E5,-2.3206914E5,5.6554555E4,-1.8319683E5,9.814629E5,3.896544E5,1.2329131E5,-9.02472E4,-4.536016E5,-6.9549243E3,-4.639528E5,-1.7849805E5,-3.5039588E5,8.983773E4,-1.4186211E5,-6.7709937E3,8.607469E3,1.2648836E4,4.569678E3,-1.745745E3,3.9034153E3,5.5215625E2,-1.4103282E3,5.870391E2,-5.3782544E3,-3.4685022E3,-6.7015986E3,-3.462806E3,-2.8567683E3,-5.657998E2,-5.4830806E3,-2.1527764E3,2.313232E3,-2.9224499E1,-1.8491798E3,5.5412485E3],"categories":[],"categories_nodes":[],"categories_segments":[],"categories_sizes":[],"default_left":[0,0,0,0,0,0,0,0,0,0,0,0,0,0,0,0,0,0,0,0,0,0,0,0,0,0,0,0,0,0,0,0,0,0,0,0,0,0,0,0,0,0,0,0,0],"id":6,"left_children":[1,3,5,7,-1,9,11,13,15,17,19,21,23,25,27,29,31,33,-1,35,37,39,41,43,-1,-1,-1,-1,-1,-1,-1,-1,-1,-1,-1,-1,-1,-1,-1,-1,-1,-1,-1,-1,-1],"loss_changes":[5.437408E13,5.4362903E13,5.599162E13,5.6385216E13,0E0,1.6382062E13,1.5518273E13,1.4767289E13,2.0199552E13,3.354101E12,4.525843E12,1.3968873E13,7.375952E12,7.5877895E11,8.017628E12,1.6012877E13,6.7407514E12,1.0811888E12,0E0,1.4422104E12,3.943148E12,1.9678007E12,1.249493E13,1.0261052E13,0E0,0E0,0E0,0E0,0E0,0E0,0E0,0E0,0E0,0E0,0E0,0E0,0E0,0E0,0E0,0E0,0E0,0E0,0E0,0E0,0E0],"parents":[2147483647,0,0,1,1,2,2,3,3,5,5,6,6,7,7,8,8,9,9,10,10,11,11,12,12,13,13,14,14,15,15,16,16,17,17,19,19,20,20,21,21,22,22,23,23],"right_children":[2,4,6,8,-1,10,12,14,16,18,20,22,24,26,28,30,32,34,-1,36,38,40,42,44,-1,-1,-1,-1,-1,-1,-1,-1,-1,-1,-1,-1,-1,-1,-1,-1,-1,-1,-1,-1,-1],"split_conditions":[1.893817E2,1.8167726E2,6.855E0,6.548E0,9.257572E3,2.1824686E2,8.177E0,1.30244E2,8.36E0,6.442E0,5.668E0,1.9905394E2,2.1118065E2,1.2982683E2,6.123E0,1.2960606E2,1.0926E1,2.1423871E2,-6.9549243E3,2.2456203E2,2.2251215E2,1.9113388E2,2.1347252E2,3.796E0,-6.7709937E3,8.607469E3,1.2648836E4,4.569678E3,-1.745745E3,3.9034153E3,5.5215625E2,-1.4103282E3,5.870391E2,-5.3782544E3,-3.4685022E3,-6.7015986E3,-3.462806E3,-2.8567683E3,-5.657998E2,-5.4830806E3,-2.1527764E3,2.313232E3,-2.9224499E1,-1.8491798E3,5.5412485E3],"split_indices":[1,1,2,2,0,1,2,1,2,2,2,1,1,1,2,1,2,1,0,1,1,1,1,3,0,0,0,0,0,0,0,0,0,0,0,0,0,0,0,0,0,0,0,0,0],"split_type":[0,0,0,0,0,0,0,0,0,0,0,0,0,0,0,0,0,0,0,0,0,0,0,0,0,0,0,0,0,0,0,0,0,0,0,0,0,0,0,0,0,0,0,0,0],"sum_hessian":[4.124E3,2.109E3,2.015E3,2.031E3,7.8E1,6.22E2,1.393E3,2.61E2,1.77E3,2.52E2,3.7E2,1.028E3,3.65E2,5.3E1,2.08E2,8.81E2,8.89E2,1.4E2,1.12E2,6.8E1,3.02E2,7.7E1,9.51E2,3.38E2,2.7E1,4E1,1.3E1,1.86E2,2.2E1,1.78E2,7.03E2,6.63E2,2.26E2,7.6E1,6.4E1,2.3E1,4.5E1,1.6E2,1.42E2,3E1,4.7E1,3.76E2,5.75E2,3.19E2,1.9E1],"tree_param":{"num_deleted":"0","num_feature":"6","num_nodes":"45","size_leaf_vector":"1"}},{"base_weights":[3.2052964E3,-4.968925E5,3.6098556E5,-5.2495344E5,-1.0386675E5,8.111563E5,1.3039727E5,-4.7937475E5,-6.368583E5,-1.7387246E4,-1.2893507E5,9.174674E5,7.6216E5,1.896085E5,3.1625113E4,-5.314466E5,-4.1013547E5,-4.3595662E5,-6.637602E5,-6.677552E4,1.0825686E5,-1.4128323E5,-7.926972E4,1.0096482E6,8.2023994E5,9.003842E3,7.385463E5,9.663349E4,2.2412961E5,-7.922268E2,1.8954712E5,-4.886053E3,-6.28523E3,-3.8066653E3,-5.262134E3,-2.72049E3,-4.5716504E3,-6.3236147E3,-7.641186E3,3.428738E2,-1.1253729E3,2.9608624E2,3.2939724E3,-1.2594109E3,-1.7108439E3,-2.4220811E2,-9.600463E2,5.16451E3,1.0217844E4,8.629931E3,5.4836113E3,7.485192E3,5.6300537E3,1.8274991E3,-1.5079393E3,3.0864001E3,1.3314683E3,3.673276E2,-1.4679745E3,3.158847E3,1.460668E3],"categories":[],"categories_nodes":[],"categories_segments":[],"categories_sizes":[],"default_left":[0,0,0,0,0,0,0,0,0,0,0,0,0,0,0,0,0,0,0,0,0,0,0,0,0,0,0,0,0,0,0,0,0,0,0,0,0,0,0,0,0,0,0,0,0,0,0,0,0,0,0,0,0,0,0,0,0,0,0,0,0],"id":7,"left_children":[1,3,5,7,9,11,13,15,17,19,21,23,25,27,29,31,33,35,37,39,41,43,45,47,49,-1,51,53,55,57,59,-1,-1,-1,-1,-1,-1,-1,-1,-1,-1,-1,-1,-1,-1,-1,-1,-1,-1,-1,-1,-1,-1,-1,-1,-1,-1,-1,-1,-1,-1],"loss_changes":[7.3234105E14,1.877139E13,2.475708E14,7.8197933E12,2.4706613E11,3.5095252E12,9.22866E12,3.877785E12,2.1859538E12,1.7477326E11,4.338208E10,1.4124738E12,1.1596076E12,3.1462187E12,3.0359615E12,2.3753854E12,1.4826613E12,7.377361E10,7.835463E11,9.635497E10,1.2938541E11,1.0458366E10,1.6099467E10,2.1448832E11,1.0029839E12,0E0,4.2412802E11,5.759293E12,5.4872905E12,2.7064627E12,5.086726E11,0E0,0E0,0E0,0E0,0E0,0E0,0E0,0E0,0E0,0E0,0E0,0E0,0E0,0E0,0E0,0E0,0E0,0E0,0E0,0E0,0E0,0E0,0E0,0E0,0E0,0E0,0E0,0E0,0E0,0E0],"parents":[2147483647,0,0,1,1,2,2,3,3,4,4,5,5,6,6,7,7,8,8,9,9,10,10,11,11,12,12,13,13,14,14,15,15,16,16,17,17,18,18,19,19,20,20,21,21,22,22,23,23,24,24,26,26,27,27,28,28,29,29,30,30],"right_children":[2,4,6,8,10,12,14,16,18,20,22,24,26,28,30,32,34,36,38,40,42,44,46,48,50,-1,52,54,56,58,60,-1,-1,-1,-1,-1,-1,-1,-1,-1,-1,-1,-1,-1,-1,-1,-1,-1,-1,-1,-1,-1,-1,-1,-1,-1,-1,-1,-1,-1,-1],"split_conditions":[2E0,1.0641E1,3E0,1E0,5.327E1,5.043E1,8.237E0,7.808E0,4.62E1,5.142E1,4.038E0,7.806E0,6.034E0,6.442E0,1.0926E1,7.087E1,9.269E0,2.34E1,8.433E0,4.554E1,1.4099E1,1.418E1,6.45E1,2.34E1,3.699E0,9.003842E3,4.078E0,6.232E0,3.514E0,9.357E0,5.519E1,-4.886053E3,-6.28523E3,-3.8066653E3,-5.262134E3,-2.72049E3,-4.5716504E3,-6.3236147E3,-7.641186E3,3.428738E2,-1.1253729E3,2.9608624E2,3.2939724E3,-1.2594109E3,-1.7108439E3,-2.4220811E2,-9.600463E2,5.16451E3,1.0217844E4,8.629931E3,5.4836113E3,7.485192E3,5.6300537E3,1.8274991E3,-1.5079393E3,3.0864001E3,1.3314683E3,3.673276E2,-1.4679745E3,3.158847E3,1.460668E3],"split_indices":[4,2,4,4,5,5,2,2,5,5,3,2,2,2,2,5,2,5,2,5,2,2,5,5,3,0,3,2,3,2,5,0,0,0,0,0,0,0,0,0,0,0,0,0,0,0,0,0,0,0,0,0,0,0,0,0,0,0,0,0,0],"split_type":[0,0,0,0,0,0,0,0,0,0,0,0,0,0,0,0,0,0,0,0,0,0,0,0,0,0,0,0,0,0,0,0,0,0,0,0,0,0,0,0,0,0,0,0,0,0,0,0,0,0,0,0,0,0,0,0,0,0,0,0,0],"sum_hessian":[4.091E3,1.706E3,2.385E3,1.592E3,1.14E2,8.07E2,1.578E3,1.135E3,4.57E2,2.6E1,8.8E1,2.49E2,5.58E2,9.86E2,5.92E2,6.44E2,4.91E2,5.6E1,4.01E2,1.9E1,7E0,6.9E1,1.9E1,1.23E2,1.26E2,7.6E1,4.82E2,2.68E2,7.18E2,4.92E2,1E2,4.51E2,1.93E2,3.95E2,9.6E1,8E0,4.8E1,3.11E2,9E1,6E0,1.3E1,6E0,1E0,4.9E1,2E1,5E0,1.4E1,4E0,1.19E2,1.07E2,1.9E1,4.53E2,2.9E1,1.99E2,6.9E1,3.71E2,3.47E2,3.92E2,1E2,2.4E1,7.6E1],"tree_param":{"num_deleted":"0","num_feature":"6","num_nodes":"61","size_leaf_vector":"1"}},{"base_weights":[1.0063374E3,-4.871984E5,3.4843256E5,-3.7679903E5,-5.615026E5,7.976131E5,1.2514817E5,-2.9543044E5,-7.961492E3,-5.0716278E5,-5.996279E5,8.3355225E5,6.887153E5,7.051314E4,2.242591E5,-1.4543772E5,-3.902853E5,-5.550503E3,-4.869655E5,-4.4939938E5,-6.0840456E5,7.1602363E3,8.5443506E5,6.3050506E5,7.8198247E3,-4.151616E4,8.640577E4,3.6376022E5,1.860549E5,-2.082464E3,-1.1927423E3,-4.197148E3,-2.2699727E3,-3.3419602E3,-4.95182E3,-5.6179287E3,-3.4723137E3,-6.112678E3,-3.3264336E3,1.231602E4,8.39606E3,6.743726E3,4.842289E3,-1.7487412E3,-3.5657024E1,1.0574865E3,-1.3463678E2,4.284021E3,2.9103564E3,-6.3534023E1,2.25266E3],"categories":[],"categories_nodes":[],"categories_segments":[],"categories_sizes":[],"default_left":[0,0,0,0,0,0,0,0,0,0,0,0,0,0,0,0,0,0,0,0,0,0,0,0,0,0,0,0,0,0,0,0,0,0,0,0,0,0,0,0,0,0,0,0,0,0,0,0,0,0,0],"id":8,"left_children":[1,3,5,7,9,11,13,15,-1,17,19,21,23,25,27,29,31,-1,33,35,37,-1,39,41,-1,43,45,47,49,-1,-1,-1,-1,-1,-1,-1,-1,-1,-1,-1,-1,-1,-1,-1,-1,-1,-1,-1,-1,-1,-1],"loss_changes":[7.057687E14,1.397985E13,2.4371738E14,2.3616029E13,1.8338839E12,2.5842617E12,8.783443E12,8.294811E12,0E0,1.4753884E11,5.1901995E11,8.657379E11,6.2534556E11,1.8712688E12,3.0074565E12,3.514764E11,1.6298898E12,0E0,2.261401E11,2.2979962E11,2.4276632E11,0E0,1.7960345E12,5.20467E11,0E0,6.6236685E11,1.776713E12,4.5355E11,3.4341955E12,0E0,0E0,0E0,0E0,0E0,0E0,0E0,0E0,0E0,0E0,0E0,0E0,0E0,0E0,0E0,0E0,0E0,0E0,0E0,0E0,0E0,0E0],"parents":[2147483647,0,0,1,1,2,2,3,3,4,4,5,5,6,6,7,7,9,9,10,10,11,11,12,12,13,13,14,14,15,15,16,16,18,18,19,19,20,20,22,22,23,23,25,25,26,26,27,27,28,28],"right_children":[2,4,6,8,10,12,14,16,-1,18,20,22,24,26,28,30,32,-1,34,36,38,-1,40,42,-1,44,46,48,50,-1,-1,-1,-1,-1,-1,-1,-1,-1,-1,-1,-1,-1,-1,-1,-1,-1,-1,-1,-1,-1,-1],"split_conditions":[2E0,1.8167726E2,3E0,1E0,2.1163943E2,3.765E0,2.0387703E2,1.3114996E2,-7.961492E3,1.9309305E2,4.446E1,1.266072E2,1.8167726E2,2.815E0,2.1347252E2,3.065E0,1.389117E2,-5.550503E3,2.34E1,3.037E0,3.936E0,7.1602363E3,1.2719177E2,1.4023102E2,7.8198247E3,1.266072E2,1.389117E2,6.638E1,2.863E0,-2.082464E3,-1.1927423E3,-4.197148E3,-2.2699727E3,-3.3419602E3,-4.95182E3,-5.6179287E3,-3.4723137E3,-6.112678E3,-3.3264336E3,1.231602E4,8.39606E3,6.743726E3,4.842289E3,-1.7487412E3,-3.5657024E1,1.0574865E3,-1.3463678E2,4.284021E3,2.9103564E3,-6.3534023E1,2.25266E3],"split_indices":[4,1,4,4,1,3,1,1,0,1,5,1,1,3,1,3,1,0,5,3,3,0,1,1,0,1,1,5,3,0,0,0,0,0,0,0,0,0,0,0,0,0,0,0,0,0,0,0,0,0,0],"split_type":[0,0,0,0,0,0,0,0,0,0,0,0,0,0,0,0,0,0,0,0,0,0,0,0,0,0,0,0,0,0,0,0,0,0,0,0,0,0,0,0,0,0,0,0,0,0,0,0,0,0,0],"sum_hessian":[4.159E3,1.729E3,2.43E3,6.98E2,1.031E3,8.06E2,1.624E3,5.86E2,1.12E2,4.31E2,6E2,6.01E2,2.05E2,1.048E3,5.76E2,2.28E2,3.58E2,1.2E2,3.11E2,3.6E1,5.64E2,9.6E1,5.05E2,1.31E2,7.4E1,1.3E2,9.18E2,1.22E2,4.54E2,6.5E1,1.63E2,3.02E2,5.6E1,1.8E1,2.93E2,1.5E1,2.1E1,5.57E2,7E0,1.6E1,4.89E2,9.8E1,3.3E1,2.8E1,1.02E2,7.69E2,1.49E2,6.2E1,6E1,7.7E1,3.77E2],"tree_param":{"num_deleted":"0","num_feature":"6","num_nodes":"51","size_leaf_vector":"1"}},{"base_weights":[1.1410781E3,1.0533649E5,-1.14874734E5,7.519727E4,9.0555375E5,-3.707539E5,-1.7360109E3,4.9214394E5,1.187156E4,2.1059944E3,9.117634E3,-5.45806E5,-2.4756572E5,6.521777E4,-1.868278E5,9.0947356E5,3.7988366E5,1.19216375E5,-9.643105E4,-4.418811E5,-6.776528E3,-3.9922856E5,-1.7100969E5,-3.449409E5,9.70044E4,-1.4533094E5,-6.5688384E3,5.144627E3,9.451582E3,4.3546167E3,-1.6752039E3,3.7223875E3,5.432663E2,-1.4885552E3,5.8082587E2,-3.1702522E3,-5.2283057E3,-7.0200356E3,-2.7840525E3,4.377422E3,-2.0829324E3,-5.110723E3,-2.141072E3,2.3748962E3,1.2933185E2,-1.8752458E3,4.904759E3],"categories":[],"categories_nodes":[],"categories_segments":[],"categories_sizes":[],"default_left":[0,0,0,0,0,0,0,0,0,0,0,0,0,0,0,0,0,0,0,0,0,0,0,0,0,0,0,0,0,0,0,0,0,0,0,0,0,0,0,0,0,0,0,0,0,0,0],"id":9,"left_children":[1,3,5,7,9,11,13,15,17,-1,-1,19,21,23,25,27,29,31,33,35,-1,37,39,41,43,45,-1,-1,-1,-1,-1,-1,-1,-1,-1,-1,-1,-1,-1,-1,-1,-1,-1,-1,-1,-1,-1],"loss_changes":[4.9997282E13,5.248486E13,5.6654205E13,5.546779E13,1.4890199E11,1.2803482E13,1.6841328E13,1.2631834E13,2.122844E13,0E0,0E0,3.0849945E12,4.0419165E12,1.3044949E13,6.946145E12,3.3130807E11,6.7661464E12,1.5035594E13,7.371814E12,1.2593398E12,0E0,4.1212686E12,5.470235E12,1.4555378E12,1.0945506E13,9.025373E12,0E0,0E0,0E0,0E0,0E0,0E0,0E0,0E0,0E0,0E0,0E0,0E0,0E0,0E0,0E0,0E0,0E0,0E0,0E0,0E0,0E0],"parents":[2147483647,0,0,1,1,2,2,3,3,4,4,5,5,6,6,7,7,8,8,11,11,12,12,13,13,14,14,15,15,16,16,17,17,18,18,19,19,21,21,22,22,23,23,24,24,25,25],"right_children":[2,4,6,8,10,12,14,16,18,-1,-1,20,22,24,26,28,30,32,34,36,-1,38,40,42,44,46,-1,-1,-1,-1,-1,-1,-1,-1,-1,-1,-1,-1,-1,-1,-1,-1,-1,-1,-1,-1,-1],"split_conditions":[1.893817E2,1.8167726E2,6.855E0,6.548E0,2.407E1,2.1846762E2,8.177E0,1.30244E2,8.36E0,2.1059944E3,9.117634E3,6.442E0,5.946E0,1.9905394E2,2.1118065E2,3.087E0,6.123E0,1.2960606E2,1.0926E1,3E0,-6.776528E3,2.233512E2,5.965E0,7.564E0,2.1347252E2,3.796E0,-6.5688384E3,5.144627E3,9.451582E3,4.3546167E3,-1.6752039E3,3.7223875E3,5.432663E2,-1.4885552E3,5.8082587E2,-3.1702522E3,-5.2283057E3,-7.0200356E3,-2.7840525E3,4.377422E3,-2.0829324E3,-5.110723E3,-2.141072E3,2.3748962E3,1.2933185E2,-1.8752458E3,4.904759E3],"split_indices":[1,1,2,2,5,1,2,1,2,0,0,2,2,1,1,3,2,1,2,3,0,1,2,2,1,3,0,0,0,0,0,0,0,0,0,0,0,0,0,0,0,0,0,0,0,0,0],"split_type":[0,0,0,0,0,0,0,0,0,0,0,0,0,0,0,0,0,0,0,0,0,0,0,0,0,0,0,0,0,0,0,0,0,0,0,0,0,0,0,0,0,0,0,0,0,0,0],"sum_hessian":[4.134E3,2.178E3,1.956E3,2.1E3,7.8E1,5.99E2,1.357E3,2.76E2,1.824E3,1E0,7.7E1,2.46E2,3.53E2,9.97E2,3.6E2,5.7E1,2.19E2,9.16E2,9.08E2,1.4E2,1.06E2,1.17E2,2.36E2,7.1E1,9.26E2,3.32E2,2.8E1,6E0,5.1E1,1.99E2,2E1,1.86E2,7.3E2,6.78E2,2.3E2,5.7E1,8.3E1,3.2E1,8.5E1,1.3E1,2.23E2,3E1,4.1E1,3.46E2,5.8E2,3.12E2,2E1],"tree_param":{"num_deleted":"0","num_feature":"6","num_nodes":"47","size_leaf_vector":"1"}},{"base_weights":[1.79503E3,-4.867568E5,3.4343894E5,-3.8282056E5,-5.5755675E5,7.8632206E5,1.2491312E5,-2.972246E5,-7.8835103E3,-5.0634146E3,-5.930701E5,8.811926E5,7.464684E5,6.914918E4,2.2378342E5,-1.5425562E5,-3.9057634E5,-3.8713588E5,-5.98136E5,8.2097675E5,9.775136E3,7.5660156E3,6.3525386E3,9.566406E4,2.4690451E4,2.4933523E5,1.4746811E4,-1.8234722E3,-1.0298297E3,-4.8937686E3,-3.359505E3,-4.2405454E3,1.0178125E3,-5.6810825E3,-6.242288E3,9.427764E3,6.6609644E3,8.563273E2,6.733447E3,-1.01139105E3,3.891912E2,3.446758E3,2.1692058E3,-1.00039746E3,6.0836127E2],"categories":[],"categories_nodes":[],"categories_segments":[],"categories_sizes":[],"default_left":[0,0,0,0,0,0,0,0,0,0,0,0,0,0,0,0,0,0,0,0,0,0,0,0,0,0,0,0,0,0,0,0,0,0,0,0,0,0,0,0,0,0,0,0,0],"id":10,"left_children":[1,3,5,7,9,11,13,15,-1,-1,17,19,21,23,25,27,29,31,33,35,-1,-1,-1,37,39,41,43,-1,-1,-1,-1,-1,-1,-1,-1,-1,-1,-1,-1,-1,-1,-1,-1,-1,-1],"loss_changes":[6.895087E14,1.2296324E13,2.3517734E14,2.3786225E13,1.534914E12,2.3783381E12,8.965851E12,7.5872443E12,0E0,0E0,3.839466E11,5.4309526E11,1.6398051E11,1.2271448E12,3.1316435E12,3.096167E11,1.7029713E12,3.5001336E11,9.509326E10,2.1827997E12,0E0,0E0,0E0,3.7264163E12,7.039777E11,1.5415284E12,3.4996424E11,0E0,0E0,0E0,0E0,0E0,0E0,0E0,0E0,0E0,0E0,0E0,0E0,0E0,0E0,0E0,0E0,0E0,0E0],"parents":[2147483647,0,0,1,1,2,2,3,3,4,4,5,5,6,6,7,7,10,10,11,11,12,12,13,13,14,14,15,15,16,16,17,17,18,18,19,19,23,23,24,24,25,25,26,26],"right_children":[2,4,6,8,10,12,14,16,-1,-1,18,20,22,24,26,28,30,32,34,36,-1,-1,-1,38,40,42,44,-1,-1,-1,-1,-1,-1,-1,-1,-1,-1,-1,-1,-1,-1,-1,-1,-1,-1],"split_conditions":[2E0,1.8167726E2,3E0,1E0,2.1163943E2,5.043E1,2.0387703E2,1.3114996E2,-7.8835103E3,-5.0634146E3,3.667E1,1.856487E2,8.502E1,1.3658911E2,2.2456203E2,1.2980519E2,1.3526527E2,3.639E1,7.043E1,1.3071957E2,9.775136E3,7.5660156E3,6.3525386E3,1.3652928E2,1.3706326E2,2.1347252E2,6.741E1,-1.8234722E3,-1.0298297E3,-4.8937686E3,-3.359505E3,-4.2405454E3,1.0178125E3,-5.6810825E3,-6.242288E3,9.427764E3,6.6609644E3,8.563273E2,6.733447E3,-1.01139105E3,3.891912E2,3.446758E3,2.1692058E3,-1.00039746E3,6.0836127E2],"split_indices":[4,1,4,4,1,5,1,1,0,0,5,1,5,1,1,1,1,5,5,1,0,0,0,1,1,1,5,0,0,0,0,0,0,0,0,0,0,0,0,0,0,0,0,0,0],"split_type":[0,0,0,0,0,0,0,0,0,0,0,0,0,0,0,0,0,0,0,0,0,0,0,0,0,0,0,0,0,0,0,0,0,0,0,0,0,0,0,0,0,0,0,0,0],"sum_hessian":[4.129E3,1.699E3,2.43E3,6.91E2,1.008E3,8.02E2,1.628E3,5.72E2,1.19E2,4.19E2,5.89E2,2.31E2,5.71E2,1.042E3,5.86E2,2.27E2,3.45E2,1.6E1,5.73E2,1.48E2,8.3E1,5.18E2,5.3E1,6.52E2,3.9E2,5.22E2,6.4E1,1.45E2,8.2E1,1.2E2,2.25E2,1.5E1,1E0,2.77E2,2.96E2,8E1,6.8E1,6.42E2,1E1,3.9E1,3.51E2,1.3E2,3.92E2,1.8E1,4.6E1],"tree_param":{"num_deleted":"0","num_feature":"6","num_nodes":"45","size_leaf_vector":"1"}},{"base_weights":[-2.104714E3,-4.8627178E5,3.3903222E5,-4.3450503E5,-6.206228E5,7.712352E5,1.2325869E5,-1.56459E5,-4.9193422E5,-7.80277E3,-5.6080475E5,8.374537E5,7.369938E5,6.8516586E4,2.2117919E5,-2.2542364E5,-1.3586628E5,-3.7998916E5,-5.4909575E5,-3.8793408E3,-6.083803E5,4.2265757E3,8.45431E5,7.46857E3,6.3101724E3,8.576706E4,-1.6155813E4,3.4848244E5,1.8161755E5,-2.502215E3,-1.558401E3,-1.4624103E3,3.9566418E2,-4.721213E3,-3.3268232E3,-4.979463E3,-5.8310034E3,-4.2285938E3,-6.2407056E3,8.01684E3,9.499768E3,3.520638E2,1.053268E3,-5.568371E2,5.499987E2,3.0366907E3,4.285851E3,-1.1869426E3,1.9695225E3],"categories":[],"categories_nodes":[],"categories_segments":[],"categories_sizes":[],"default_left":[0,0,0,0,0,0,0,0,0,0,0,0,0,0,0,0,0,0,0,0,0,0,0,0,0,0,0,0,0,0,0,0,0,0,0,0,0,0,0,0,0,0,0,0,0,0,0,0,0],"id":11,"left_children":[1,3,5,7,9,11,13,15,17,-1,19,21,23,25,27,29,31,33,35,-1,37,-1,39,-1,-1,41,43,45,47,-1,-1,-1,-1,-1,-1,-1,-1,-1,-1,-1,-1,-1,-1,-1,-1,-1,-1,-1,-1],"loss_changes":[6.75699E14,1.1491084E13,2.2372404E14,1.9467795E13,4.0319173E12,1.1944371E12,8.5721633E12,2.6902843E11,6.2798965E12,0E0,2.5931788E12,5.1954005E11,8.794617E10,1.5043831E12,2.8275607E12,4.2105045E10,3.0609795E11,1.3509643E12,8.732541E11,0E0,5.1622655E11,0E0,4.2298717E11,0E0,0E0,8.4184714E11,4.9527367E11,3.5445853E11,2.049662E12,0E0,0E0,0E0,0E0,0E0,0E0,0E0,0E0,0E0,0E0,0E0,0E0,0E0,0E0,0E0,0E0,0E0,0E0,0E0,0E0],"parents":[2147483647,0,0,1,1,2,2,3,3,4,4,5,5,6,6,7,7,8,8,10,10,11,11,12,12,13,13,14,14,15,15,16,16,17,17,18,18,20,20,22,22,25,25,26,26,27,27,28,28],"right_children":[2,4,6,8,10,12,14,16,18,-1,20,22,24,26,28,30,32,34,36,-1,38,-1,40,-1,-1,42,44,46,48,-1,-1,-1,-1,-1,-1,-1,-1,-1,-1,-1,-1,-1,-1,-1,-1,-1,-1,-1,-1],"split_conditions":[2E0,1E0,3E0,1.3158661E2,1.3158661E2,5.124E1,2.1012868E2,4.082E1,1.8167726E2,-7.80277E3,2.0926915E2,2.407E1,8.476E1,1.389117E2,2.1347252E2,1.290432E2,1E0,1.3526527E2,2.1163943E2,-3.8793408E3,4.483E1,4.2265757E3,2.0387703E2,7.46857E3,6.3101724E3,1.3158661E2,1.9232727E2,2.1195671E2,4.351E1,-2.502215E3,-1.558401E3,-1.4624103E3,3.9566418E2,-4.721213E3,-3.3268232E3,-4.979463E3,-5.8310034E3,-4.2285938E3,-6.2407056E3,8.01684E3,9.499768E3,3.520638E2,1.053268E3,-5.568371E2,5.499987E2,3.0366907E3,4.285851E3,-1.1869426E3,1.9695225E3],"split_indices":[4,4,4,1,1,5,1,5,1,0,1,5,5,1,1,1,0,1,1,0,5,0,1,0,0,1,1,1,5,0,0,0,0,0,0,0,0,0,0,0,0,0,0,0,0,0,0,0,0],"split_type":[0,0,0,0,0,0,0,0,0,0,0,0,0,0,0,0,0,0,0,0,0,0,0,0,0,0,0,0,0,0,0,0,0,0,0,0,0,0,0,0,0,0,0,0,0,0,0,0,0],"sum_hessian":[4.089E3,1.69E3,2.399E3,1.223E3,4.67E2,7.98E2,1.601E3,2.1E2,1.013E3,1.24E2,3.43E2,2.64E2,5.34E2,1.028E3,5.73E2,4.6E1,1.64E2,3.45E2,6.68E2,7.6E1,2.67E2,6E0,2.58E2,4.83E2,5.1E1,8.54E2,1.74E2,1.34E2,4.39E2,3.2E1,1.4E1,1.55E2,9E0,1.14E2,2.31E2,2.73E2,3.95E2,2.3E1,2.44E2,1.88E2,7E1,2.39E2,6.15E2,1.12E2,6.2E1,8.9E1,4.5E1,2.1E1,4.18E2],"tree_param":{"num_deleted":"0","num_feature":"6","num_nodes":"49","size_leaf_vector":"1"}},{"base_weights":[3.0925493E3,-4.7528375E5,3.375577E5,-4.26102E5,-6.097215E5,7.699122E5,1.19416695E5,-5.275571E5,-4.0436303E5,-3.7053225E5,-6.3349406E5,8.6980275E5,7.259203E5,1.0461028E5,2.0646403E5,-5.3661743E3,-3.9858497E5,-3.4529412E5,-4.2920784E5,-3.9060955E3,2.7368625E2,-5.8821396E3,-7.0042007E3,9.141636E5,6.943619E5,7.464149E5,5.7700586E3,-3.808269E4,1.1162132E5,2.1620238E5,1.27791695E5,-5.150326E3,-2.7766077E3,-3.6274424E3,-1.4207561E3,-4.432428E3,-3.120891E3,5.0183525E3,9.271935E3,4.266173E3,7.4670674E3,7.5888486E3,6.22973E3,5.181783E2,-7.634199E2,1.0199205E3,2.3349834E3,1.6505725E3,2.3622756E3,4.6869583E1,1.3708102E3],"categories":[],"categories_nodes":[],"categories_segments":[],"categories_sizes":[],"default_left":[0,0,0,0,0,0,0,0,0,0,0,0,0,0,0,0,0,0,0,0,0,0,0,0,0,0,0,0,0,0,0,0,0,0,0,0,0,0,0,0,0,0,0,0,0,0,0,0,0,0,0],"id":12,"left_children":[1,3,5,7,9,11,13,15,17,19,21,23,25,27,29,-1,31,33,35,-1,-1,-1,-1,37,39,41,-1,43,45,47,49,-1,-1,-1,-1,-1,-1,-1,-1,-1,-1,-1,-1,-1,-1,-1,-1,-1,-1,-1,-1],"loss_changes":[6.552013E14,1.0881233E13,2.2720536E14,2.5149047E12,2.3183428E12,2.9193027E12,2.0444422E12,3.7346083E10,1.353116E12,3.5420792E11,8.2137894E11,1.2486443E12,1.2997645E12,1.3768338E12,1.5011519E11,0E0,1.1045988E11,1.0406907E12,1.03859356E12,0E0,0E0,0E0,0E0,5.554936E11,4.2423917E11,2.8920565E11,0E0,2.275254E11,1.511236E12,1.7096927E11,3.1377195E10,0E0,0E0,0E0,0E0,0E0,0E0,0E0,0E0,0E0,0E0,0E0,0E0,0E0,0E0,0E0,0E0,0E0,0E0,0E0,0E0],"parents":[2147483647,0,0,1,1,2,2,3,3,4,4,5,5,6,6,7,7,8,8,9,9,10,10,11,11,12,12,13,13,14,14,16,16,17,17,18,18,23,23,24,24,25,25,27,27,28,28,29,29,30,30],"right_children":[2,4,6,8,10,12,14,16,18,20,22,24,26,28,30,-1,32,34,36,-1,-1,-1,-1,38,40,42,-1,44,46,48,50,-1,-1,-1,-1,-1,-1,-1,-1,-1,-1,-1,-1,-1,-1,-1,-1,-1,-1,-1,-1],"split_conditions":[2E0,1E0,3E0,2.781E0,4.351E1,5.056E1,7.895E1,1E0,3.243E0,4.329E1,7.569E1,3.554E0,3.963E0,2.482E1,3.787E0,-5.3661743E3,2.577E0,7.72E1,3.95E0,-3.9060955E3,2.7368625E2,-5.8821396E3,-7.0042007E3,2.407E1,3.804E1,8.476E1,5.7700586E3,3.141E0,1E0,8.23E1,3.796E0,-5.150326E3,-2.7766077E3,-3.6274424E3,-1.4207561E3,-4.432428E3,-3.120891E3,5.0183525E3,9.271935E3,4.266173E3,7.4670674E3,7.5888486E3,6.22973E3,5.181783E2,-7.634199E2,1.0199205E3,2.3349834E3,1.6505725E3,2.3622756E3,4.6869583E1,1.3708102E3],"split_indices":[4,4,4,3,5,5,5,0,3,5,5,3,3,5,3,0,3,5,3,0,0,0,0,5,5,5,0,3,0,5,3,0,0,0,0,0,0,0,0,0,0,0,0,0,0,0,0,0,0,0,0],"split_type":[0,0,0,0,0,0,0,0,0,0,0,0,0,0,0,0,0,0,0,0,0,0,0,0,0,0,0,0,0,0,0,0,0,0,0,0,0,0,0,0,0,0,0,0,0,0,0,0,0,0,0],"sum_hessian":[4.093E3,1.684E3,2.409E3,1.236E3,4.48E2,8.07E2,1.602E3,2.14E2,1.022E3,4.2E1,4.06E2,2.41E2,5.66E2,1.371E3,2.31E2,1.97E2,1.7E1,3.07E2,7.15E2,4E1,2E0,2.48E2,1.58E2,1.89E2,5.2E1,4.94E2,7.2E1,6.4E1,1.307E3,2.04E2,2.7E1,7E0,1E1,2.82E2,2.5E1,6.36E2,7.9E1,7E0,1.82E2,1E1,4.2E1,4.44E2,5E1,1.9E1,4.5E1,1.213E3,9.4E1,6E1,1.44E2,2E0,2.5E1],"tree_param":{"num_deleted":"0","num_feature":"6","num_nodes":"51","size_leaf_vector":"1"}},{"base_weights":[-5.467046E2,-4.7274094E5,3.389912E5,-3.7204544E5,-5.387033E5,7.6755625E5,1.21119445E5,-2.8858312E5,-7.6589087E3,-4.8637556E5,-5.7691006E5,7.8908256E5,6.1466644E5,6.3719332E4,2.2426652E5,-1.4727712E5,-3.8773475E5,-5.331302E3,-4.6741356E5,-4.5799222E5,-5.8629056E5,8.595429E5,7.516346E5,5.518426E5,7.092593E3,-1.1908454E5,7.345344E4,2.4397112E5,5.0471434E4,-2.1940073E3,-1.1720758E3,-4.16361E3,-2.2918594E3,-3.3144846E3,-4.7479683E3,-5.8307847E3,-3.5593296E3,-5.881777E3,-3.1810496E3,8.997622E3,6.991518E3,6.4871562E3,7.643606E3,1.5951693E3,5.5537007E3,-1.5586272E3,-8.124991E1,9.760897E2,3.2970282E2,2.1235918E3,3.3640696E3,-7.5663055E2,8.776298E2],"categories":[],"categories_nodes":[],"categories_segments":[],"categories_sizes":[],"default_left":[0,0,0,0,0,0,0,0,0,0,0,0,0,0,0,0,0,0,0,0,0,0,0,0,0,0,0,0,0,0,0,0,0,0,0,0,0,0,0,0,0,0,0,0,0,0,0,0,0,0,0,0,0],"id":13,"left_children":[1,3,5,7,9,11,13,15,-1,17,19,21,23,25,27,29,31,-1,33,35,37,39,41,43,-1,45,47,49,51,-1,-1,-1,-1,-1,-1,-1,-1,-1,-1,-1,-1,-1,-1,-1,-1,-1,-1,-1,-1,-1,-1,-1,-1],"loss_changes":[6.5926795E14,1.1224025E13,2.2325337E14,2.2262913E13,1.7926455E12,2.1676834E12,9.381788E12,7.872956E12,0E0,1.4443505E11,3.940968E11,1.208832E12,2.2663922E11,1.8255477E12,1.9294134E12,4.8393408E11,1.4114169E12,0E0,1.678896E11,4.0524212E11,8.972455E10,8.997789E11,1.15796345E11,4.1292923E9,0E0,2.1093987E11,9.453374E11,1.4158964E12,2.8416174E11,0E0,0E0,0E0,0E0,0E0,0E0,0E0,0E0,0E0,0E0,0E0,0E0,0E0,0E0,0E0,0E0,0E0,0E0,0E0,0E0,0E0,0E0,0E0,0E0],"parents":[2147483647,0,0,1,1,2,2,3,3,4,4,5,5,6,6,7,7,9,9,10,10,11,11,12,12,13,13,14,14,15,15,16,16,18,18,19,19,20,20,21,21,22,22,23,23,25,25,26,26,27,27,28,28],"right_children":[2,4,6,8,10,12,14,16,-1,18,20,22,24,26,28,30,32,-1,34,36,38,40,42,44,-1,46,48,50,52,-1,-1,-1,-1,-1,-1,-1,-1,-1,-1,-1,-1,-1,-1,-1,-1,-1,-1,-1,-1,-1,-1,-1,-1],"split_conditions":[2E0,1.8167726E2,3E0,1E0,2.1163943E2,3.898E0,2.0387703E2,1.3158661E2,-7.6589087E3,1.9309305E2,4.531E1,5.056E1,1.8167726E2,2.728E0,2.2456203E2,3.065E0,1.3989331E2,-5.331302E3,2.34E1,3.037E0,3.924E0,3.554E0,1.2643642E2,4.043E1,7.092593E3,1.3668958E2,1.3658911E2,2.1993872E2,6.703E1,-2.1940073E3,-1.1720758E3,-4.16361E3,-2.2918594E3,-3.3144846E3,-4.7479683E3,-5.8307847E3,-3.5593296E3,-5.881777E3,-3.1810496E3,8.997622E3,6.991518E3,6.4871562E3,7.643606E3,1.5951693E3,5.5537007E3,-1.5586272E3,-8.124991E1,9.760897E2,3.2970282E2,2.1235918E3,3.3640696E3,-7.5663055E2,8.776298E2],"split_indices":[4,1,4,4,1,3,1,1,0,1,5,5,1,3,1,3,1,0,5,3,3,3,1,5,0,1,1,1,5,0,0,0,0,0,0,0,0,0,0,0,0,0,0,0,0,0,0,0,0,0,0,0,0],"split_type":[0,0,0,0,0,0,0,0,0,0,0,0,0,0,0,0,0,0,0,0,0,0,0,0,0,0,0,0,0,0,0,0,0,0,0,0,0,0,0,0,0,0,0,0,0,0,0,0,0,0,0,0,0],"sum_hessian":[4.11E3,1.719E3,2.391E3,6.83E2,1.036E3,8.05E2,1.586E3,5.65E2,1.18E2,4.43E2,5.93E2,7.02E2,1.03E2,1.02E3,5.66E2,2.34E2,3.31E2,1.2E2,3.23E2,4.7E1,5.46E2,2.36E2,4.66E2,6.6E1,3.7E1,5.1E1,9.69E2,5.08E2,5.8E1,6.7E1,1.67E2,2.79E2,5.2E1,1.9E1,3.04E2,1.9E1,2.8E1,5.41E2,5E0,1.85E2,5.1E1,5.7E1,4.09E2,1E0,6.5E1,3.8E1,1.3E1,6.06E2,3.63E2,3.81E2,1.27E2,1.3E1,4.5E1],"tree_param":{"num_deleted":"0","num_feature":"6","num_nodes":"53","size_leaf_vector":"1"}},{"base_weights":[3.3172314E3,-4.6781306E5,3.3595884E5,-3.6622038E5,-5.335131E5,7.571099E5,1.2095631E5,-2.832083E5,-7.57575E3,-4.8329028E5,-5.698783E5,8.047411E5,6.7650744E5,6.3426793E4,2.2154855E5,-1.4207462E5,-3.8088028E5,-5.33736E3,-4.6270525E5,-5.740235E5,-3.4078142E3,6.7620386E3,8.319821E5,6.962253E5,5.1273726E3,-8.6560336E4,7.61377E4,2.4349906E5,1.1414383E4,-2.1067727E3,-1.1054717E3,-4.6985317E3,-3.319324E3,-4.982027E3,-4.354652E3,-6.1817007E3,-5.5874175E3,1.1942041E4,8.1537173E3,6.6576675E3,7.705534E3,-1.4046464E3,3.1743628E1,9.222883E2,3.8462467E1,3.4577366E3,2.080072E3,4.1156726E2,-4.4179666E2],"categories":[],"categories_nodes":[],"categories_segments":[],"categories_sizes":[],"default_left":[0,0,0,0,0,0,0,0,0,0,0,0,0,0,0,0,0,0,0,0,0,0,0,0,0,0,0,0,0,0,0,0,0,0,0,0,0,0,0,0,0,0,0,0,0,0,0,0,0],"id":14,"left_children":[1,3,5,7,9,11,13,15,-1,17,19,21,23,25,27,29,31,-1,33,35,-1,-1,37,39,-1,41,43,45,47,-1,-1,-1,-1,-1,-1,-1,-1,-1,-1,-1,-1,-1,-1,-1,-1,-1,-1,-1,-1],"loss_changes":[6.448931E14,1.1171545E13,2.1831148E14,2.1616822E13,1.6093712E12,2.5845637E12,9.233609E12,7.6102416E12,0E0,2.0995008E11,3.6753847E11,1.2126236E12,6.408393E11,1.9473797E12,2.677113E12,4.7200652E11,1.2724889E12,0E0,9.247182E10,4.657355E10,0E0,0E0,1.5171636E12,1.0504215E11,0E0,3.874128E11,1.0919383E12,1.8374113E12,9.441413E10,0E0,0E0,0E0,0E0,0E0,0E0,0E0,0E0,0E0,0E0,0E0,0E0,0E0,0E0,0E0,0E0,0E0,0E0,0E0,0E0],"parents":[2147483647,0,0,1,1,2,2,3,3,4,4,5,5,6,6,7,7,9,9,10,10,11,11,12,12,13,13,14,14,15,15,16,16,18,18,19,19,22,22,23,23,25,25,26,26,27,27,28,28],"right_children":[2,4,6,8,10,12,14,16,-1,18,20,22,24,26,28,30,32,-1,34,36,-1,-1,38,40,-1,42,44,46,48,-1,-1,-1,-1,-1,-1,-1,-1,-1,-1,-1,-1,-1,-1,-1,-1,-1,-1,-1,-1],"split_conditions":[2E0,1.8167726E2,3E0,1E0,2.1163943E2,3.647E0,2.0387703E2,1.3158661E2,-7.57575E3,1.9309305E2,3.924E0,1.266072E2,4.078E0,2.766E0,2.2456203E2,3.065E0,1.3526527E2,-5.33736E3,2.836E0,3.037E0,-3.4078142E3,6.7620386E3,1.2719177E2,1.9283131E2,5.1273726E3,1.366338E2,1.3849593E2,2.1347252E2,3.689E0,-2.1067727E3,-1.1054717E3,-4.6985317E3,-3.319324E3,-4.982027E3,-4.354652E3,-6.1817007E3,-5.5874175E3,1.1942041E4,8.1537173E3,6.6576675E3,7.705534E3,-1.4046464E3,3.1743628E1,9.222883E2,3.8462467E1,3.4577366E3,2.080072E3,4.1156726E2,-4.4179666E2],"split_indices":[4,1,4,4,1,3,1,1,0,1,3,1,3,3,1,3,1,0,3,3,0,0,1,1,0,1,1,1,3,0,0,0,0,0,0,0,0,0,0,0,0,0,0,0,0,0,0,0,0],"split_type":[0,0,0,0,0,0,0,0,0,0,0,0,0,0,0,0,0,0,0,0,0,0,0,0,0,0,0,0,0,0,0,0,0,0,0,0,0,0,0,0,0,0,0,0,0,0,0,0,0],"sum_hessian":[4.113E3,1.702E3,2.411E3,6.71E2,1.031E3,8.14E2,1.597E3,5.55E2,1.16E2,4.39E2,5.92E2,5.06E2,3.08E2,1.017E3,5.8E2,2.28E2,3.27E2,1.2E2,3.19E2,5.8E2,1.2E1,9.3E1,4.13E2,2.72E2,3.6E1,7.9E1,9.38E2,5.25E2,5.5E1,7E1,1.58E2,1.13E2,2.14E2,1.31E2,1.88E2,1.39E2,4.41E2,1.5E1,3.98E2,2E2,7.2E1,4.9E1,3E1,7.67E2,1.71E2,1.33E2,3.92E2,3.6E1,1.9E1],"tree_param":{"num_deleted":"0","num_feature":"6","num_nodes":"49","size_leaf_vector":"1"}},{"base_weights":[1.7526309E3,-4.557338E5,3.241404E5,-4.824686E5,-8.050603E4,7.481461E5,1.1610073E5,-4.3843834E5,-5.9101006E5,-9.0074016E4,2.8965207E4,8.474581E5,7.094241E5,1.7610361E5,1.8831064E4,-3.1826875E5,-5.201522E5,-7.500838E3,-5.329574E5,-1.0697192E5,-5.1143984E4,-9.612006E2,5.354358E4,8.836067E3,6.4576475E3,6.532488E5,7.7304125E5,7.887477E4,2.1469695E5,-1.8641664E4,1.9184617E5,-2.770063E3,-4.8665923E3,-5.6145493E3,-4.0299148E3,-3.5673315E3,-5.7667124E3,-1.1676365E3,-4.1167322E2,-8.3706537E2,8.6412524E2,1.7361616E3,-5.5651875E1,6.9527188E3,5.313598E3,7.416391E3,9.376067E3,2.453149E3,-4.4926498E2,7.794335E2,3.206069E3,-1.4506777E3,2.4207391E2,1.7725525E3,3.2148906E3],"categories":[],"categories_nodes":[],"categories_segments":[],"categories_sizes":[],"default_left":[0,0,0,0,0,0,0,0,0,0,0,0,0,0,0,0,0,0,0,0,0,0,0,0,0,0,0,0,0,0,0,0,0,0,0,0,0,0,0,0,0,0,0,0,0,0,0,0,0,0,0,0,0,0,0],"id":15,"left_children":[1,3,5,7,9,11,13,15,17,19,21,23,25,27,29,31,33,-1,35,37,39,-1,41,-1,-1,43,45,47,49,51,53,-1,-1,-1,-1,-1,-1,-1,-1,-1,-1,-1,-1,-1,-1,-1,-1,-1,-1,-1,-1,-1,-1,-1,-1],"loss_changes":[6.104532E14,1.712531E13,2.1408706E14,7.373083E12,1.23062125E11,2.4714181E12,9.510112E12,1.1028704E13,3.8297183E12,6.4259686E10,3.5890532E10,1.0261113E12,1.5713205E12,3.765472E12,4.0427022E12,3.0891594E12,3.049779E12,0E0,2.405752E12,4.2230022E10,1.5952581E11,0E0,6.484229E10,0E0,0E0,1.244039E12,6.8440975E11,5.945406E12,1.0417663E13,2.7825558E12,1.529833E11,0E0,0E0,0E0,0E0,0E0,0E0,0E0,0E0,0E0,0E0,0E0,0E0,0E0,0E0,0E0,0E0,0E0,0E0,0E0,0E0,0E0,0E0,0E0,0E0],"parents":[2147483647,0,0,1,1,2,2,3,3,4,4,5,5,6,6,7,7,8,8,9,9,10,10,11,11,12,12,13,13,14,14,15,15,16,16,18,18,19,19,20,20,22,22,25,25,26,26,27,27,28,28,29,29,30,30],"right_children":[2,4,6,8,10,12,14,16,18,20,22,24,26,28,30,32,34,-1,36,38,40,-1,42,-1,-1,44,46,48,50,52,54,-1,-1,-1,-1,-1,-1,-1,-1,-1,-1,-1,-1,-1,-1,-1,-1,-1,-1,-1,-1,-1,-1,-1,-1],"split_conditions":[2E0,1.0641E1,3E0,1E0,1E0,7.147E0,8.237E0,1.8167726E2,1.3158661E2,1.2980519E2,1.2613606E2,2.1464745E2,1.8167726E2,6.442E0,1.0926E1,9.269E0,7.598E0,-7.500838E3,2.0926915E2,1.4313E1,1.289E1,-9.612006E2,1.2673133E2,8.836067E3,6.4576475E3,1.366338E2,8.687E0,1.389117E2,2.1012868E2,1.3114996E2,1E0,-2.770063E3,-4.8665923E3,-5.6145493E3,-4.0299148E3,-3.5673315E3,-5.7667124E3,-1.1676365E3,-4.1167322E2,-8.3706537E2,8.6412524E2,1.7361616E3,-5.5651875E1,6.9527188E3,5.313598E3,7.416391E3,9.376067E3,2.453149E3,-4.4926498E2,7.794335E2,3.206069E3,-1.4506777E3,2.4207391E2,1.7725525E3,3.2148906E3],"split_indices":[4,2,4,4,0,2,2,1,1,1,1,1,1,2,2,2,2,0,1,2,2,0,1,0,0,1,2,1,1,1,0,0,0,0,0,0,0,0,0,0,0,0,0,0,0,0,0,0,0,0,0,0,0,0,0],"split_type":[0,0,0,0,0,0,0,0,0,0,0,0,0,0,0,0,0,0,0,0,0,0,0,0,0,0,0,0,0,0,0,0,0,0,0,0,0,0,0,0,0,0,0,0,0,0,0,0,0,0,0,0,0,0,0],"sum_hessian":[4.137E3,1.71E3,2.427E3,1.596E3,1.14E2,7.98E2,1.629E3,1.139E3,4.57E2,1.05E2,9E0,2.18E2,5.8E2,1.007E3,6.22E2,4.63E2,6.76E2,1.19E2,3.38E2,7.2E1,3.3E1,1E0,8E0,1.82E2,3.6E1,3.14E2,2.66E2,2.87E2,7.2E2,5.12E2,1.1E2,3.74E2,8.9E1,4.97E2,1.79E2,6.9E1,2.69E2,6.2E1,1E1,2.7E1,6E0,2E0,6E0,2.3E2,8.4E1,2.28E2,3.8E1,1.22E2,1.65E2,3.15E2,4.05E2,1.29E2,3.83E2,1.01E2,9E0],"tree_param":{"num_deleted":"0","num_feature":"6","num_nodes":"55","size_leaf_vector":"1"}},{"base_weights":[2.931076E3,-4.5380444E5,3.267278E5,-3.496812E5,-5.215342E5,7.474079E5,1.1814561E5,-2.691165E5,-7.437836E3,-4.702635E5,-5.562895E5,7.9252125E5,6.631273E5,6.5112297E4,2.1086527E5,-1.3337238E5,-3.6626172E5,-5.1589507E3,-4.511302E5,-5.5963656E5,-3.2345452E3,6.6570493E3,8.178697E5,6.289192E5,7.665887E3,-7.697175E4,7.987768E4,2.3483006E5,1.5534047E4,-2.0030883E3,-1.06207E3,-4.600777E3,-3.11802E3,-4.256777E3,-4.841124E3,-6.0846235E3,-5.446694E3,1.2161063E4,7.9514487E3,6.9741113E3,5.6438447E3,-1.2558209E3,2.1108374E2,1.0836141E3,2.9519406E2,3.2286606E3,2.0533523E3,6.233499E2,-6.184086E2],"categories":[],"categories_nodes":[],"categories_segments":[],"categories_sizes":[],"default_left":[0,0,0,0,0,0,0,0,0,0,0,0,0,0,0,0,0,0,0,0,0,0,0,0,0,0,0,0,0,0,0,0,0,0,0,0,0,0,0,0,0,0,0,0,0,0,0,0,0],"id":16,"left_children":[1,3,5,7,9,11,13,15,-1,17,19,21,23,25,27,29,31,-1,33,35,-1,-1,37,39,-1,41,43,45,47,-1,-1,-1,-1,-1,-1,-1,-1,-1,-1,-1,-1,-1,-1,-1,-1,-1,-1,-1,-1],"loss_changes":[6.0782605E14,1.1841695E13,2.1094173E14,2.12316E13,1.5755484E12,2.5048048E12,7.8980946E12,7.3621863E12,0E0,1.36583315E11,2.935845E11,1.1077996E12,5.2301293E11,2.1565218E12,2.7347806E12,4.0785753E11,1.527251E12,0E0,5.0805604E10,1.06333995E11,0E0,0E0,2.870179E12,5.7440154E11,0E0,4.6511856E11,1.3293511E12,1.2865356E12,2.3923409E11,0E0,0E0,0E0,0E0,0E0,0E0,0E0,0E0,0E0,0E0,0E0,0E0,0E0,0E0,0E0,0E0,0E0,0E0,0E0,0E0],"parents":[2147483647,0,0,1,1,2,2,3,3,4,4,5,5,6,6,7,7,9,9,10,10,11,11,12,12,13,13,14,14,15,15,16,16,18,18,19,19,22,22,23,23,25,25,26,26,27,27,28,28],"right_children":[2,4,6,8,10,12,14,16,-1,18,20,22,24,26,28,30,32,-1,34,36,-1,-1,38,40,-1,42,44,46,48,-1,-1,-1,-1,-1,-1,-1,-1,-1,-1,-1,-1,-1,-1,-1,-1,-1,-1,-1,-1],"split_conditions":[2E0,1.8167726E2,3E0,1E0,2.1163943E2,3.647E0,2.0387703E2,1.3158661E2,-7.437836E3,1.9309305E2,3.936E0,1.266072E2,1.9283131E2,2.781E0,2.2456203E2,3.065E0,1.3526527E2,-5.1589507E3,2.0926915E2,3.022E0,-3.2345452E3,6.6570493E3,1.2719177E2,1.3114996E2,7.665887E3,1.3668958E2,1.366338E2,2.1347252E2,2.2548311E2,-2.0030883E3,-1.06207E3,-4.600777E3,-3.11802E3,-4.256777E3,-4.841124E3,-6.0846235E3,-5.446694E3,1.2161063E4,7.9514487E3,6.9741113E3,5.6438447E3,-1.2558209E3,2.1108374E2,1.0836141E3,2.9519406E2,3.2286606E3,2.0533523E3,6.233499E2,-6.184086E2],"split_indices":[4,1,4,4,1,3,1,1,0,1,3,1,1,3,1,3,1,0,1,3,0,0,1,1,0,1,1,1,1,0,0,0,0,0,0,0,0,0,0,0,0,0,0,0,0,0,0,0,0],"split_type":[0,0,0,0,0,0,0,0,0,0,0,0,0,0,0,0,0,0,0,0,0,0,0,0,0,0,0,0,0,0,0,0,0,0,0,0,0,0,0,0,0,0,0,0,0,0,0,0,0],"sum_hessian":[4.108E3,1.704E3,2.404E3,6.74E2,1.03E3,7.96E2,1.608E3,5.61E2,1.13E2,4.22E2,6.08E2,5.13E2,2.83E2,1.024E3,5.84E2,2.35E2,3.26E2,1.17E2,3.05E2,5.98E2,1E1,9E1,4.23E2,2.18E2,6.5E1,9.6E1,9.28E2,5.2E2,6.4E1,6.6E1,1.69E2,1.17E2,2.09E2,1.8E2,1.25E2,1.31E2,4.67E2,2E1,4.03E2,1.01E2,1.17E2,6.4E1,3.2E1,5.92E2,3.36E2,1.28E2,3.92E2,4E1,2.4E1],"tree_param":{"num_deleted":"0","num_feature":"6","num_nodes":"49","size_leaf_vector":"1"}},{"base_weights":[-1.4142678E3,-4.48456E5,3.1569784E5,-4.0115494E5,-5.78015E5,7.226276E5,1.16570234E5,-5.051866E5,-3.806796E5,-4.1410725E5,-6.058171E5,7.6679725E5,6.425435E5,1.024855E5,2.119466E5,-5.0882753E5,-1.9684359E3,-3.318638E5,-4.0226922E5,-4.4976816E3,-3.4197662E5,-5.270324E3,-6.276515E5,8.361715E5,7.199351E3,6.5878475E5,5.0678433E3,-1.6979028E3,1.1121547E5,2.21801E5,8.044703E4,-2.7169385E3,-5.122808E3,-3.468582E3,-1.4435754E3,-4.0955293E3,-2.1358833E3,-1.1819197E3,-3.874644E3,-5.918941E3,-6.761635E3,4.6332754E3,8.45458E3,4.6941924E3,6.712918E3,1.5471699E3,-4.0343182E2,-9.207696E2,1.1478428E3,1.8983964E3,2.5114624E3,5.607684E2,1.6735892E3],"categories":[],"categories_nodes":[],"categories_segments":[],"categories_sizes":[],"default_left":[0,0,0,0,0,0,0,0,0,0,0,0,0,0,0,0,0,0,0,0,0,0,0,0,0,0,0,0,0,0,0,0,0,0,0,0,0,0,0,0,0,0,0,0,0,0,0,0,0,0,0,0,0],"id":17,"left_children":[1,3,5,7,9,11,13,15,17,19,21,23,25,27,29,31,-1,33,35,-1,37,-1,39,41,-1,43,-1,45,47,49,51,-1,-1,-1,-1,-1,-1,-1,-1,-1,-1,-1,-1,-1,-1,-1,-1,-1,-1,-1,-1,-1,-1],"loss_changes":[5.8278485E14,1.0222962E13,1.947952E14,2.4766862E12,1.8179959E12,2.3017334E12,2.1491362E12,1.2773333E11,9.7416905E11,2.36737E10,3.332123E11,1.0365635E12,2.9893643E11,1.2826066E12,2.5039785E11,2.4595399E10,0E0,8.7211324E11,9.075132E11,0E0,2.2905068E11,0E0,1.1497426E11,2.9037167E11,0E0,2.840886E11,0E0,6.7115857E11,9.5446E11,1.3240264E11,2.4503992E10,0E0,0E0,0E0,0E0,0E0,0E0,0E0,0E0,0E0,0E0,0E0,0E0,0E0,0E0,0E0,0E0,0E0,0E0,0E0,0E0,0E0,0E0],"parents":[2147483647,0,0,1,1,2,2,3,3,4,4,5,5,6,6,7,7,8,8,9,9,10,10,11,11,12,12,13,13,14,14,15,15,17,17,18,18,20,20,22,22,23,23,25,25,27,27,28,28,29,29,30,30],"right_children":[2,4,6,8,10,12,14,16,18,20,22,24,26,28,30,32,-1,34,36,-1,38,-1,40,42,-1,44,-1,46,48,50,52,-1,-1,-1,-1,-1,-1,-1,-1,-1,-1,-1,-1,-1,-1,-1,-1,-1,-1,-1,-1,-1,-1],"split_conditions":[2E0,1E0,3E0,2.771E0,4.796E1,3.647E0,8.035E1,8.84E1,3.243E0,3.411E0,2.931E0,5.043E1,4.078E0,2.719E0,3.843E0,1.905E1,-1.9684359E3,7.745E1,4.117E0,-4.4976816E3,3.494E0,-5.270324E3,7.569E1,2.407E1,7.199351E3,4.446E1,5.0678433E3,2.577E0,1.905E1,8.532E1,1E0,-2.7169385E3,-5.122808E3,-3.468582E3,-1.4435754E3,-4.0955293E3,-2.1358833E3,-1.1819197E3,-3.874644E3,-5.918941E3,-6.761635E3,4.6332754E3,8.45458E3,4.6941924E3,6.712918E3,1.5471699E3,-4.0343182E2,-9.207696E2,1.1478428E3,1.8983964E3,2.5114624E3,5.607684E2,1.6735892E3],"split_indices":[4,4,4,3,5,3,5,5,3,3,3,5,3,3,3,5,0,5,3,0,3,0,5,5,0,5,0,3,5,5,0,0,0,0,0,0,0,0,0,0,0,0,0,0,0,0,0,0,0,0,0,0,0],"split_type":[0,0,0,0,0,0,0,0,0,0,0,0,0,0,0,0,0,0,0,0,0,0,0,0,0,0,0,0,0,0,0,0,0,0,0,0,0,0,0,0,0,0,0,0,0,0,0,0,0,0,0,0,0],"sum_hessian":[4.109E3,1.705E3,2.404E3,1.252E3,4.53E2,7.89E2,1.615E3,2.02E2,1.05E3,6.8E1,3.85E2,5.03E2,2.86E2,1.409E3,2.06E2,1.99E2,3E0,3.27E2,7.23E2,4.2E1,2.6E1,8.9E1,2.96E2,1.96E2,3.07E2,2.52E2,3.4E1,1.09E2,1.3E3,1.91E2,1.5E1,4E0,1.95E2,3.02E2,2.5E1,6.95E2,2.8E1,5E0,2.1E1,1.78E2,1.18E2,6E0,1.9E2,1.8E1,2.34E2,2.1E1,8.8E1,2.2E1,1.278E3,9.5E1,9.6E1,1.3E1,2E0],"tree_param":{"num_deleted":"0","num_feature":"6","num_nodes":"53","size_leaf_vector":"1"}},{"base_weights":[-3.8045554E3,-4.4616634E5,3.1317662E5,-3.4714134E5,-5.1223088E5,7.204094E5,1.15573945E5,-2.6801522E5,-7.3033687E3,-4.6376028E5,-5.448191E5,7.465383E5,6.336989E5,6.432692E4,2.0669653E5,-1.2934545E5,-3.60489E5,-5.1498174E3,-4.428582E5,-3.5236234E5,-5.4910756E5,8.1646325E5,7.1180494E5,5.8236925E5,7.111731E3,-7.264747E4,7.751878E4,2.3102889E5,7.667427E3,-1.7740073E3,-9.718562E2,-4.5376157E3,-3.118625E3,-2.993202E3,-4.5031753E3,-3.8533206E3,-1.5712015E3,-5.5225522E3,-3.1100369E3,7.218856E3,9.114226E3,6.109329E3,7.2934404E3,6.2932773E3,4.530296E3,-1.720707E3,-2.0929956E2,1.0469291E3,2.8810135E2,3.2318374E3,1.9874901E3,-3.7592438E2,1.8811708E3],"categories":[],"categories_nodes":[],"categories_segments":[],"categories_sizes":[],"default_left":[0,0,0,0,0,0,0,0,0,0,0,0,0,0,0,0,0,0,0,0,0,0,0,0,0,0,0,0,0,0,0,0,0,0,0,0,0,0,0,0,0,0,0,0,0,0,0,0,0,0,0,0,0],"id":18,"left_children":[1,3,5,7,9,11,13,15,-1,17,19,21,23,25,27,29,31,-1,33,35,37,39,41,43,-1,45,47,49,51,-1,-1,-1,-1,-1,-1,-1,-1,-1,-1,-1,-1,-1,-1,-1,-1,-1,-1,-1,-1,-1,-1,-1,-1],"loss_changes":[5.7406164E14,1.1002498E13,1.9183837E14,2.0634634E13,1.3632327E12,1.2918792E12,7.49101E12,7.275486E12,0E0,2.1946276E11,3.0667073E11,8.590606E11,3.2948775E11,1.8667861E12,2.7973931E12,3.3821295E11,1.4096343E12,0E0,1.9070661E11,4.2449764E10,2.7118692E11,1.0484418E12,2.6917365E11,4.315771E11,0E0,4.6431355E11,1.2411821E12,1.4677631E12,5.2976786E11,0E0,0E0,0E0,0E0,0E0,0E0,0E0,0E0,0E0,0E0,0E0,0E0,0E0,0E0,0E0,0E0,0E0,0E0,0E0,0E0,0E0,0E0,0E0,0E0],"parents":[2147483647,0,0,1,1,2,2,3,3,4,4,5,5,6,6,7,7,9,9,10,10,11,11,12,12,13,13,14,14,15,15,16,16,18,18,19,19,20,20,21,21,22,22,23,23,25,25,26,26,27,27,28,28],"right_children":[2,4,6,8,10,12,14,16,-1,18,20,22,24,26,28,30,32,-1,34,36,38,40,42,44,-1,46,48,50,52,-1,-1,-1,-1,-1,-1,-1,-1,-1,-1,-1,-1,-1,-1,-1,-1,-1,-1,-1,-1,-1,-1,-1,-1],"split_conditions":[2E0,1.8167726E2,3E0,1E0,2.1153125E2,3.765E0,2.0387703E2,1.3158661E2,-7.3033687E3,1.9309305E2,3.764E1,4.822E1,1.8167726E2,2.77E0,2.2390068E2,3.161E0,1.3526527E2,-5.1498174E3,2.34E1,3.639E1,3.936E0,1.4101619E2,1.2643642E2,1.3989331E2,7.111731E3,1.266072E2,1.3658911E2,2.1347252E2,8.185E1,-1.7740073E3,-9.718562E2,-4.5376157E3,-3.118625E3,-2.993202E3,-4.5031753E3,-3.8533206E3,-1.5712015E3,-5.5225522E3,-3.1100369E3,7.218856E3,9.114226E3,6.109329E3,7.2934404E3,6.2932773E3,4.530296E3,-1.720707E3,-2.0929956E2,1.0469291E3,2.8810135E2,3.2318374E3,1.9874901E3,-3.7592438E2,1.8811708E3],"split_indices":[4,1,4,4,1,3,1,1,0,1,5,5,1,3,1,3,1,0,5,5,3,1,1,1,0,1,1,1,5,0,0,0,0,0,0,0,0,0,0,0,0,0,0,0,0,0,0,0,0,0,0,0,0],"split_type":[0,0,0,0,0,0,0,0,0,0,0,0,0,0,0,0,0,0,0,0,0,0,0,0,0,0,0,0,0,0,0,0,0,0,0,0,0,0,0,0,0,0,0,0,0,0,0,0,0,0,0,0,0],"sum_hessian":[4.092E3,1.708E3,2.384E3,6.86E2,1.022E3,7.78E2,1.606E3,5.7E2,1.16E2,4.17E2,6.05E2,5.92E2,1.86E2,1.029E3,5.77E2,2.29E2,3.41E2,1.14E2,3.03E2,1.5E1,5.9E2,1.89E2,4.03E2,1.17E2,6.9E1,9E1,9.39E2,5.14E2,6.3E1,9E1,1.39E2,1.14E2,2.27E2,1.7E1,2.86E2,1.2E1,3E0,5.81E2,9E0,9.9E1,9E1,6.5E1,3.38E2,8.3E1,3.4E1,3E1,6E1,6.02E2,3.37E2,1.31E2,3.83E2,5.1E1,1.2E1],"tree_param":{"num_deleted":"0","num_feature":"6","num_nodes":"53","size_leaf_vector":"1"}},{"base_weights":[-1.0340158E4,-4.4098347E5,3.0787175E5,-4.6768266E5,-8.054084E4,7.0602156E5,1.1380507E5,-4.2793847E5,-5.6663825E5,2.194315E4,-1.1097763E5,8.076208E5,6.671316E5,6.0537023E4,2.0811372E5,-3.1146194E5,-5.0411184E5,-7.221761E3,-5.121364E5,-2.7220913E3,1.7678144E5,-9.644114E4,-1.6066744E5,8.419081E5,6.2269663E3,6.130245E5,7.2707056E5,2.4528662E5,3.7930824E4,-4.5965754E4,3.0754038E5,-2.6421697E3,-4.763183E3,-5.486652E3,-3.810529E3,-3.469631E3,-5.5366704E3,1.02204724E3,-2.644536E2,2.2967607E3,9.0487495E1,-5.955845E2,-1.0854999E3,-9.692281E2,-1.754541E3,9.351388E3,7.830008E3,6.575829E3,4.9087344E3,8.115026E3,6.870618E3,3.1754084E3,2.1621538E3,1.7661086E2,1.8666069E3,-2.3149314E3,9.12225E2,3.893773E3,2.6477305E3],"categories":[],"categories_nodes":[],"categories_segments":[],"categories_sizes":[],"default_left":[0,0,0,0,0,0,0,0,0,0,0,0,0,0,0,0,0,0,0,0,0,0,0,0,0,0,0,0,0,0,0,0,0,0,0,0,0,0,0,0,0,0,0,0,0,0,0,0,0,0,0,0,0,0,0,0,0,0,0],"id":19,"left_children":[1,3,5,7,9,11,13,15,17,19,21,23,25,27,29,31,33,-1,35,37,39,41,43,45,-1,47,49,51,53,55,57,-1,-1,-1,-1,-1,-1,-1,-1,-1,-1,-1,-1,-1,-1,-1,-1,-1,-1,-1,-1,-1,-1,-1,-1,-1,-1,-1,-1],"loss_changes":[5.6951964E14,1.6957437E13,1.8458924E14,6.22324E12,3.861071E11,2.5550022E12,8.0654096E12,1.0285826E13,3.597421E12,1.1123581E11,5.3125054E10,8.199445E11,1.4093533E12,4.288301E12,1.4666258E13,3.519235E12,3.683639E12,0E0,2.2088128E12,6.7422237E10,3.3410351E10,2.7477017E10,1.8459853E9,2.3436932E11,0E0,1.3481667E12,3.409969E11,1.666009E11,2.7642123E12,4.1952752E12,1.3563792E12,0E0,0E0,0E0,0E0,0E0,0E0,0E0,0E0,0E0,0E0,0E0,0E0,0E0,0E0,0E0,0E0,0E0,0E0,0E0,0E0,0E0,0E0,0E0,0E0,0E0,0E0,0E0,0E0],"parents":[2147483647,0,0,1,1,2,2,3,3,4,4,5,5,6,6,7,7,8,8,9,9,10,10,11,11,12,12,13,13,14,14,15,15,16,16,18,18,19,19,20,20,21,21,22,22,23,23,25,25,26,26,27,27,28,28,29,29,30,30],"right_children":[2,4,6,8,10,12,14,16,18,20,22,24,26,28,30,32,34,-1,36,38,40,42,44,46,-1,48,50,52,54,56,58,-1,-1,-1,-1,-1,-1,-1,-1,-1,-1,-1,-1,-1,-1,-1,-1,-1,-1,-1,-1,-1,-1,-1,-1,-1,-1,-1,-1],"split_conditions":[2E0,1.0641E1,3E0,1E0,5.327E1,7.147E0,2.0387703E2,1.8167726E2,1.3158661E2,5.27E1,1.418E1,2.1464745E2,1.8167726E2,5.936E0,6.442E0,9.269E0,7.598E0,-7.221761E3,2.0926915E2,1.2673133E2,1.2985553E2,6.45E1,1.261119E2,4.996E1,6.2269663E3,1.366338E2,5.124E1,3.667E1,1.0926E1,2.211484E2,6.307E1,-2.6421697E3,-4.763183E3,-5.486652E3,-3.810529E3,-3.469631E3,-5.5366704E3,1.02204724E3,-2.644536E2,2.2967607E3,9.0487495E1,-5.955845E2,-1.0854999E3,-9.692281E2,-1.754541E3,9.351388E3,7.830008E3,6.575829E3,4.9087344E3,8.115026E3,6.870618E3,3.1754084E3,2.1621538E3,1.7661086E2,1.8666069E3,-2.3149314E3,9.12225E2,3.893773E3,2.6477305E3],"split_indices":[4,2,4,4,5,2,1,1,1,5,2,1,1,2,2,2,2,0,1,1,1,5,1,5,0,1,5,5,2,1,5,0,0,0,0,0,0,0,0,0,0,0,0,0,0,0,0,0,0,0,0,0,0,0,0,0,0,0,0],"split_type":[0,0,0,0,0,0,0,0,0,0,0,0,0,0,0,0,0,0,0,0,0,0,0,0,0,0,0,0,0,0,0,0,0,0,0,0,0,0,0,0,0,0,0,0,0,0,0,0,0,0,0,0,0,0,0,0,0,0,0],"sum_hessian":[4.154E3,1.765E3,2.389E3,1.643E3,1.22E2,7.82E2,1.607E3,1.176E3,4.67E2,2.8E1,9.4E1,2.11E2,5.71E2,1.028E3,5.79E2,4.67E2,7.09E2,1.18E2,3.49E2,2.5E1,3E0,7.5E1,1.9E1,1.75E2,3.6E1,3.06E2,2.65E2,1.11E2,9.17E2,1.63E2,4.16E2,3.65E2,1.02E2,5.18E2,1.91E2,7.2E1,2.77E2,4E0,2.1E1,2E0,1E0,2E1,5.5E1,5E0,1.4E1,6.2E1,1.13E2,2.21E2,8.5E1,7.9E1,1.86E2,2.9E1,8.2E1,8.08E2,1.09E2,6.9E1,9.4E1,1.4E2,2.76E2],"tree_param":{"num_deleted":"0","num_feature":"6","num_nodes":"59","size_leaf_vector":"1"}},{"base_weights":[4.8054648E2,-4.3764112E5,3.0996747E5,-3.3572044E5,-5.0354912E5,7.058487E5,1.0960628E5,-2.6505684E5,-7.141065E3,-4.592029E5,-5.357879E5,7.41226E5,5.986946E5,5.7452676E4,2.053043E5,-1.3357592E5,-3.4927478E5,-4.9575483E3,-4.4431475E5,-5.38483E5,-3.0167402E3,6.060724E3,7.558445E5,5.43123E5,6.9048286E3,-3.0103568E4,7.441419E4,3.2500725E5,1.7047998E5,-2.0522864E3,-1.0532874E3,-4.505163E3,-2.9534597E3,-4.148746E3,-4.8174434E3,-6.0358237E3,-5.276837E3,8.106576E3,7.174938E3,5.8050884E3,4.3043237E3,-1.561465E3,2.7972185E1,1.4405598E3,5.405186E2,2.7949111E3,4.0938496E3,-3.629215E2,2.1047214E3],"categories":[],"categories_nodes":[],"categories_segments":[],"categories_sizes":[],"default_left":[0,0,0,0,0,0,0,0,0,0,0,0,0,0,0,0,0,0,0,0,0,0,0,0,0,0,0,0,0,0,0,0,0,0,0,0,0,0,0,0,0,0,0,0,0,0,0,0,0],"id":20,"left_children":[1,3,5,7,9,11,13,15,-1,17,19,21,23,25,27,29,31,-1,33,35,-1,-1,37,39,-1,41,43,45,47,-1,-1,-1,-1,-1,-1,-1,-1,-1,-1,-1,-1,-1,-1,-1,-1,-1,-1,-1,-1],"loss_changes":[5.571514E14,1.125721E13,1.9092336E14,1.7752006E13,1.2279412E12,2.6229835E12,7.9737997E12,6.231767E12,0E0,1.9713229E10,2.104534E11,7.353118E11,6.757527E11,1.5422747E12,2.2956684E12,4.2973266E11,1.7505809E12,0E0,1.5606166E11,9.136872E10,0E0,0E0,5.555607E11,3.1046238E11,0E0,7.012649E11,1.224515E12,3.6948987E11,3.6378457E12,0E0,0E0,0E0,0E0,0E0,0E0,0E0,0E0,0E0,0E0,0E0,0E0,0E0,0E0,0E0,0E0,0E0,0E0,0E0,0E0],"parents":[2147483647,0,0,1,1,2,2,3,3,4,4,5,5,6,6,7,7,9,9,10,10,11,11,12,12,13,13,14,14,15,15,16,16,18,18,19,19,22,22,23,23,25,25,26,26,27,27,28,28],"right_children":[2,4,6,8,10,12,14,16,-1,18,20,22,24,26,28,30,32,-1,34,36,-1,-1,38,40,-1,42,44,46,48,-1,-1,-1,-1,-1,-1,-1,-1,-1,-1,-1,-1,-1,-1,-1,-1,-1,-1,-1,-1],"split_conditions":[2E0,1.8167726E2,3E0,1E0,2.1163943E2,3.765E0,2.1012868E2,1.3158661E2,-7.141065E3,1.9309305E2,3.936E0,1.2643642E2,1.8167726E2,2.836E0,2.1347252E2,3.065E0,1.3526527E2,-4.9575483E3,2.0926915E2,2.728E0,-3.0167402E3,6.060724E3,1.3158661E2,1.4023102E2,6.9048286E3,1.266072E2,3.176E0,2.735E0,2.863E0,-2.0522864E3,-1.0532874E3,-4.505163E3,-2.9534597E3,-4.148746E3,-4.8174434E3,-6.0358237E3,-5.276837E3,8.106576E3,7.174938E3,5.8050884E3,4.3043237E3,-1.561465E3,2.7972185E1,1.4405598E3,5.405186E2,2.7949111E3,4.0938496E3,-3.629215E2,2.1047214E3],"split_indices":[4,1,4,4,1,3,1,1,0,1,3,1,1,3,1,3,1,0,1,3,0,0,1,1,0,1,3,3,3,0,0,0,0,0,0,0,0,0,0,0,0,0,0,0,0,0,0,0,0],"split_type":[0,0,0,0,0,0,0,0,0,0,0,0,0,0,0,0,0,0,0,0,0,0,0,0,0,0,0,0,0,0,0,0,0,0,0,0,0,0,0,0,0,0,0,0,0,0,0,0,0],"sum_hessian":[4.107E3,1.7E3,2.407E3,6.7E2,1.03E3,8.08E2,1.599E3,5.66E2,1.04E2,4.4E2,5.9E2,6.03E2,2.05E2,1.036E3,5.63E2,2.22E2,3.44E2,1.18E2,3.22E2,5.82E2,8E0,6.3E1,5.4E2,1.32E2,7.3E1,1.68E2,8.68E2,1.25E2,4.38E2,6.1E1,1.61E2,1.17E2,2.27E2,1.87E2,1.35E2,7.5E1,5.07E2,2.14E2,3.26E2,9.6E1,3.6E1,3.4E1,1.34E2,1.95E2,6.73E2,8.4E1,4.1E1,7.1E1,3.67E2],"tree_param":{"num_deleted":"0","num_feature":"6","num_nodes":"49","size_leaf_vector":"1"}},{"base_weights":[-6.4911284E3,-4.3383244E5,3.0880172E5,-4.5787744E5,-7.4014484E4,7.049572E5,1.1027894E5,-4.184186E5,-5.5844575E5,-9.859718E4,-2.9639223E4,8.0310475E5,6.6868744E5,1.6067558E5,2.7138096E4,-3.031076E5,-4.9551594E5,-7.0814175E3,-5.064945E5,-1.337946E5,-7.894436E4,1.6450827E5,-6.117383E4,8.366101E5,6.1263213E3,6.045852E5,7.392394E5,6.3092227E4,2.0025925E5,-6.0593535E3,1.7984094E5,-2.5989294E3,-4.6548384E3,-5.3753145E3,-3.7294167E3,-3.458903E3,-5.4611772E3,-8.5274005E2,-1.5272526E3,-9.331069E1,-1.1681838E3,-7.0241437E2,2.255065E3,-1.2112146E3,-3.3458524E2,8.425015E3,3.741278E3,6.4902397E3,4.912637E3,8.140373E3,6.738487E3,1.667214E3,-1.9237095E3,6.4482306E2,3.0167722E3,-1.399519E3,3.7391205E2,2.0239231E3,1.2766691E3],"categories":[],"categories_nodes":[],"categories_segments":[],"categories_sizes":[],"default_left":[0,0,0,0,0,0,0,0,0,0,0,0,0,0,0,0,0,0,0,0,0,0,0,0,0,0,0,0,0,0,0,0,0,0,0,0,0,0,0,0,0,0,0,0,0,0,0,0,0,0,0,0,0,0,0,0,0,0,0],"id":21,"left_children":[1,3,5,7,9,11,13,15,17,19,21,23,25,27,29,31,33,-1,35,37,39,41,43,45,-1,47,49,51,53,55,57,-1,-1,-1,-1,-1,-1,-1,-1,-1,-1,-1,-1,-1,-1,-1,-1,-1,-1,-1,-1,-1,-1,-1,-1,-1,-1,-1,-1],"loss_changes":[5.56331E14,1.513278E13,1.8678487E14,6.286255E12,1.18163505E11,2.2858957E12,6.632627E12,1.0375769E13,3.218709E12,3.8550307E10,2.6108051E11,8.212615E11,2.1987548E12,3.795996E12,3.0376274E12,3.2261454E12,3.4457382E12,0E0,2.0065718E12,9.021161E9,1.2546369E11,1.0175581E11,5.5760257E10,1.6162331E11,0E0,1.2523437E12,7.9163294E11,7.603476E12,9.633473E12,2.8733627E12,1.0005696E11,0E0,0E0,0E0,0E0,0E0,0E0,0E0,0E0,0E0,0E0,0E0,0E0,0E0,0E0,0E0,0E0,0E0,0E0,0E0,0E0,0E0,0E0,0E0,0E0,0E0,0E0,0E0,0E0],"parents":[2147483647,0,0,1,1,2,2,3,3,4,4,5,5,6,6,7,7,8,8,9,9,10,10,11,11,12,12,13,13,14,14,15,15,16,16,18,18,19,19,20,20,21,21,22,22,23,23,25,25,26,26,27,27,28,28,29,29,30,30],"right_children":[2,4,6,8,10,12,14,16,18,20,22,24,26,28,30,32,34,-1,36,38,40,42,44,46,-1,48,50,52,54,56,58,-1,-1,-1,-1,-1,-1,-1,-1,-1,-1,-1,-1,-1,-1,-1,-1,-1,-1,-1,-1,-1,-1,-1,-1,-1,-1,-1,-1],"split_conditions":[2E0,1.0641E1,3E0,1E0,1.2980519E2,7.147E0,8.237E0,1.8167726E2,1.3158661E2,1.2643642E2,3.647E0,2.1464745E2,1.8167726E2,6.442E0,1.0926E1,9.269E0,7.598E0,-7.0814175E3,2.0926915E2,1.418E1,1.2698358E2,1.289E1,1.1627E1,4.054E0,6.1263213E3,1.3658911E2,3.161E0,6.232E0,2.1028317E2,1.3114996E2,3.843E0,-2.5989294E3,-4.6548384E3,-5.3753145E3,-3.7294167E3,-3.458903E3,-5.4611772E3,-8.5274005E2,-1.5272526E3,-9.331069E1,-1.1681838E3,-7.0241437E2,2.255065E3,-1.2112146E3,-3.3458524E2,8.425015E3,3.741278E3,6.4902397E3,4.912637E3,8.140373E3,6.738487E3,1.667214E3,-1.9237095E3,6.4482306E2,3.0167722E3,-1.399519E3,3.7391205E2,2.0239231E3,1.2766691E3],"split_indices":[4,2,4,4,1,2,2,1,1,1,3,1,1,2,2,2,2,0,1,2,1,2,2,3,0,1,3,2,1,1,3,0,0,0,0,0,0,0,0,0,0,0,0,0,0,0,0,0,0,0,0,0,0,0,0,0,0,0,0],"split_type":[0,0,0,0,0,0,0,0,0,0,0,0,0,0,0,0,0,0,0,0,0,0,0,0,0,0,0,0,0,0,0,0,0,0,0,0,0,0,0,0,0,0,0,0,0,0,0,0,0,0,0,0,0,0,0,0,0,0,0],"sum_hessian":[4.127E3,1.752E3,2.375E3,1.642E3,1.1E2,7.92E2,1.583E3,1.183E3,4.59E2,7E1,4E1,2.08E2,5.84E2,9.85E2,5.98E2,4.76E2,7.07E2,1.15E2,3.44E2,2.3E1,4.7E1,5E0,3.5E1,1.74E2,3.4E1,3.11E2,2.73E2,2.85E2,7E2,4.92E2,1.06E2,3.78E2,9.8E1,5.24E2,1.83E2,7E1,2.74E2,8E0,1.5E1,1.7E1,3E1,1E0,4E0,1E1,2.5E1,1.71E2,3E0,2.2E2,9.1E1,1.22E2,1.51E2,2.03E2,8.2E1,3E2,4E2,1.2E2,3.72E2,7.2E1,3.4E1],"tree_param":{"num_deleted":"0","num_feature":"6","num_nodes":"59","size_leaf_vector":"1"}},{"base_weights":[-3.3999954E2,1.0170857E5,-1.1214728E5,7.515915E4,7.995394E5,-2.31733E5,-8.4468E4,1.6819947E5,2.451616E3,9.073253E5,7.0033356E5,-2.7644066E5,1.8452427E5,1.4656182E4,-1.3237008E5,2.0693008E5,-2.6743756E5,-3.268804E3,2.6091653E5,7.943201E3,1.302296E4,1.9862693E3,7.0722173E3,-2.9783244E5,4.378796E3,3.069015E5,5.8876133E4,-2.7337773E4,2.0849069E5,-2.8586722E5,-1.0770002E5,2.3895928E3,-2.1140362E1,-1.5098896E3,-3.9999504E3,-1.8668933E2,7.652678E2,3.6358665E3,1.5427667E3,-3.2837727E3,-1.9504479E3,1.3514667E2,4.18703E3,6.219117E2,-3.973125E0,1.2836754E3,-6.606978E2,-3.2222588E3,2.6287114E3,-2.926816E3,1.3878407E3,-1.151774E3,2.9625605E3],"categories":[],"categories_nodes":[],"categories_segments":[],"categories_sizes":[],"default_left":[0,0,0,0,0,0,0,0,0,0,0,0,0,0,0,0,0,0,0,0,0,0,0,0,0,0,0,0,0,0,0,0,0,0,0,0,0,0,0,0,0,0,0,0,0,0,0,0,0,0,0,0,0],"id":22,"left_children":[1,3,5,7,9,11,13,15,17,19,21,23,25,27,29,31,33,35,37,-1,-1,-1,-1,39,-1,41,43,45,47,49,51,-1,-1,-1,-1,-1,-1,-1,-1,-1,-1,-1,-1,-1,-1,-1,-1,-1,-1,-1,-1,-1,-1],"loss_changes":[4.6506233E13,3.9420946E13,6.418466E12,1.3894347E13,1.9862127E11,6.8436193E12,7.5089293E12,1.525745E13,1.7070739E12,4.8311042E11,1.5038677E10,5.173007E12,5.354839E11,4.2058766E12,4.005923E12,5.544396E12,1.0818788E12,1.3900432E12,2.1762526E11,0E0,0E0,0E0,0E0,9.43775E11,0E0,5.847608E11,3.7581046E9,2.571562E12,2.73988E12,4.659987E11,2.8130138E12,0E0,0E0,0E0,0E0,0E0,0E0,0E0,0E0,0E0,0E0,0E0,0E0,0E0,0E0,0E0,0E0,0E0,0E0,0E0,0E0,0E0,0E0],"parents":[2147483647,0,0,1,1,2,2,3,3,4,4,5,5,6,6,7,7,8,8,9,9,10,10,11,11,12,12,13,13,14,14,15,15,16,16,17,17,18,18,23,23,25,25,26,26,27,27,28,28,29,29,30,30],"right_children":[2,4,6,8,10,12,14,16,18,20,22,24,26,28,30,32,34,36,38,-1,-1,-1,-1,40,-1,42,44,46,48,50,52,-1,-1,-1,-1,-1,-1,-1,-1,-1,-1,-1,-1,-1,-1,-1,-1,-1,-1,-1,-1,-1,-1],"split_conditions":[1.893817E2,1.8167726E2,1.9905394E2,1.3114996E2,3.153E0,7.075E1,2.1347252E2,9.061E1,7.795E1,3.01E0,1.8278328E2,3.95E0,1.9196472E2,3.285E0,2.863E0,3.889E0,9.4E1,1.389117E2,2.961E0,7.943201E3,1.302296E4,1.9862693E3,7.0722173E3,3.617E0,4.378796E3,1.9039583E2,1E0,2.071883E2,2.0387703E2,8.716E1,3.963E0,2.3895928E3,-2.1140362E1,-1.5098896E3,-3.9999504E3,-1.8668933E2,7.652678E2,3.6358665E3,1.5427667E3,-3.2837727E3,-1.9504479E3,1.3514667E2,4.18703E3,6.219117E2,-3.973125E0,1.2836754E3,-6.606978E2,-3.2222588E3,2.6287114E3,-2.926816E3,1.3878407E3,-1.151774E3,2.9625605E3],"split_indices":[1,1,1,1,3,5,1,5,5,3,1,3,1,3,3,3,5,1,3,0,0,0,0,3,0,1,0,1,1,5,3,0,0,0,0,0,0,0,0,0,0,0,0,0,0,0,0,0,0,0,0,0,0],"split_type":[0,0,0,0,0,0,0,0,0,0,0,0,0,0,0,0,0,0,0,0,0,0,0,0,0,0,0,0,0,0,0,0,0,0,0,0,0,0,0,0,0,0,0,0,0,0,0,0,0,0,0,0,0],"sum_hessian":[4.074E3,2.13E3,1.944E3,2.053E3,7.7E1,3.64E2,1.58E3,9E2,1.153E3,3.3E1,4.4E1,3.29E2,3.5E1,5.15E2,1.065E3,8.27E2,7.3E1,1.129E3,2.4E1,2.8E1,5E0,1E0,4.3E1,3.2E2,9E0,1.7E1,1.8E1,4.24E2,9.1E1,1.46E2,9.19E2,7.17E2,1.1E2,4E1,3.3E1,9.47E2,1.82E2,1.1E1,1.3E1,2.45E2,7.5E1,5E0,1.2E1,1.7E1,1E0,8.4E1,3.4E2,8E0,8.3E1,1.44E2,2E0,9.03E2,1.6E1],"tree_param":{"num_deleted":"0","num_feature":"6","num_nodes":"53","size_leaf_vector":"1"}},{"base_weights":[1.5504413E2,-4.2820175E5,3.0738028E5,-3.791788E5,-5.573197E5,7.0037694E5,1.0957558E5,-4.8544747E5,-3.5944212E5,-3.881652E3,-5.807147E5,7.444171E5,6.1877894E5,9.701334E4,1.8730594E5,-4.880016E5,-1.6187081E3,-3.634276E5,-1.354211E5,-5.447849E5,-6.323554E3,8.2229375E5,6.9009023E3,6.3415825E5,4.9036836E3,8.817758E4,2.0484575E5,1.9279434E5,6.5499434E4,-4.1713086E3,-5.0650283E3,-3.1392566E3,-3.8547427E3,-2.5895828E3,-6.3979565E2,-5.6492524E3,-4.874269E3,4.348936E3,8.357498E3,6.6102744E3,5.517323E3,2.0198752E2,1.0338114E3,2.758211E1,2.6291143E3,1.698922E3,2.4127002E3,2.1494437E2,7.9314496E2],"categories":[],"categories_nodes":[],"categories_segments":[],"categories_sizes":[],"default_left":[0,0,0,0,0,0,0,0,0,0,0,0,0,0,0,0,0,0,0,0,0,0,0,0,0,0,0,0,0,0,0,0,0,0,0,0,0,0,0,0,0,0,0,0,0,0,0,0,0],"id":23,"left_children":[1,3,5,7,9,11,13,15,17,-1,19,21,23,25,27,29,-1,31,33,35,-1,37,-1,39,-1,41,43,45,47,-1,-1,-1,-1,-1,-1,-1,-1,-1,-1,-1,-1,-1,-1,-1,-1,-1,-1,-1,-1],"loss_changes":[5.3943672E14,1.0625179E13,1.8548048E14,2.4346593E12,1.6305944E12,2.4106846E12,1.5334354E12,7.968339E10,8.909289E11,0E0,4.1622595E11,1.6071566E12,2.5383928E11,1.2872487E12,1.3444684E11,3.78494E10,0E0,1.00745504E12,1.5994569E11,1.2289311E10,0E0,7.1040605E11,0E0,1.9339097E11,0E0,1.3084152E12,1.2079129E12,1.9215208E11,4.9824276E9,0E0,0E0,0E0,0E0,0E0,0E0,0E0,0E0,0E0,0E0,0E0,0E0,0E0,0E0,0E0,0E0,0E0,0E0,0E0,0E0],"parents":[2147483647,0,0,1,1,2,2,3,3,4,4,5,5,6,6,7,7,8,8,10,10,11,11,12,12,13,13,14,14,15,15,17,17,18,18,19,19,21,21,23,23,25,25,26,26,27,27,28,28],"right_children":[2,4,6,8,10,12,14,16,18,-1,20,22,24,26,28,30,-1,32,34,36,-1,38,-1,40,-1,42,44,46,48,-1,-1,-1,-1,-1,-1,-1,-1,-1,-1,-1,-1,-1,-1,-1,-1,-1,-1,-1,-1],"split_conditions":[2E0,1E0,3E0,2.771E0,4.597E1,3.647E0,7.895E1,8.796E1,4.17E0,-3.881652E3,7.569E1,5.056E1,4.078E0,1E0,9.271E1,3.981E1,-1.6187081E3,3.256E0,6.061E1,3.681E0,-6.323554E3,2.407E1,6.9009023E3,7.5E1,4.9036836E3,2.815E0,2.916E1,8.653E1,9.4E1,-4.1713086E3,-5.0650283E3,-3.1392566E3,-3.8547427E3,-2.5895828E3,-6.3979565E2,-5.6492524E3,-4.874269E3,4.348936E3,8.357498E3,6.6102744E3,5.517323E3,2.0198752E2,1.0338114E3,2.758211E1,2.6291143E3,1.698922E3,2.4127002E3,2.1494437E2,7.9314496E2],"split_indices":[4,4,4,3,5,3,5,5,3,0,5,5,3,0,5,5,0,3,5,3,0,5,0,5,0,3,5,5,5,0,0,0,0,0,0,0,0,0,0,0,0,0,0,0,0,0,0,0,0],"split_type":[0,0,0,0,0,0,0,0,0,0,0,0,0,0,0,0,0,0,0,0,0,0,0,0,0,0,0,0,0,0,0,0,0,0,0,0,0,0,0,0,0,0,0,0,0,0,0,0,0],"sum_hessian":[4.097E3,1.711E3,2.386E3,1.243E3,4.68E2,7.98E2,1.588E3,1.91E2,1.052E3,5.9E1,4.09E2,5.13E2,2.85E2,1.369E3,2.19E2,1.89E2,2E0,1.033E3,1.9E1,2.48E2,1.61E2,2.05E2,3.08E2,2.51E2,3.4E1,1.267E3,1.02E2,2.09E2,1E1,4.4E1,1.45E2,3.23E2,7.1E2,6E0,1.3E1,1.77E2,7.1E1,8E0,1.97E2,1.84E2,6.7E1,2.32E2,1.035E3,2.3E1,7.9E1,1.45E2,6.4E1,3E0,7E0],"tree_param":{"num_deleted":"0","num_feature":"6","num_nodes":"49","size_leaf_vector":"1"}},{"base_weights":[3.0162693E3,-4.229206E5,3.093844E5,-4.4708772E5,-7.04474E4,6.8889206E5,1.13931945E5,-4.081954E5,-5.4543006E5,-8.363407E4,1.3930031E5,7.567373E5,6.388414E5,1.6447056E5,2.9481125E4,-4.5407506E5,-3.4675722E5,-4.6461812E5,-6.0588206E5,-1.112677E5,-6.7832945E4,1.8885827E5,-7.902372E2,8.960029E3,7.3086444E5,6.889884E5,5.364483E5,6.3180457E4,2.0421502E5,-3.2524832E3,1.9756967E5,-5.485043E3,-4.304132E3,-3.0719644E3,-4.17438E3,-4.9030435E3,-2.7484812E3,-5.190037E3,-6.480494E3,-5.2874584E1,-1.1717264E3,-8.261863E2,2.8992034E3,1.485625E2,2.2068743E3,7.4279023E3,5.309373E3,6.576259E3,7.571197E3,4.9586157E3,5.982108E3,1.5162915E3,-1.6094227E3,2.9231956E3,1.3113605E3,2.7690457E2,-1.1292971E3,1.8457288E3,3.1908743E3],"categories":[],"categories_nodes":[],"categories_segments":[],"categories_sizes":[],"default_left":[0,0,0,0,0,0,0,0,0,0,0,0,0,0,0,0,0,0,0,0,0,0,0,0,0,0,0,0,0,0,0,0,0,0,0,0,0,0,0,0,0,0,0,0,0,0,0,0,0,0,0,0,0,0,0,0,0,0,0],"id":24,"left_children":[1,3,5,7,9,11,13,15,17,19,21,23,25,27,29,31,33,35,37,39,41,43,-1,-1,45,47,49,51,53,55,57,-1,-1,-1,-1,-1,-1,-1,-1,-1,-1,-1,-1,-1,-1,-1,-1,-1,-1,-1,-1,-1,-1,-1,-1,-1,-1,-1,-1],"loss_changes":[5.3867745E14,1.4679561E13,1.7801737E14,5.95816E12,3.21428E11,2.2874727E12,6.764242E12,3.117945E12,1.9412749E12,3.8736495E10,9.066213E10,5.738479E11,2.0745195E12,3.9806105E12,3.2744187E12,1.2430743E12,1.2726609E12,8.352621E11,6.0517096E11,2.253534E10,3.9422686E11,2.9951443E10,0E0,0E0,3.0422126E11,1.773184E11,1.0695056E11,5.594769E12,4.545942E12,1.6966012E12,9.430132E10,0E0,0E0,0E0,0E0,0E0,0E0,0E0,0E0,0E0,0E0,0E0,0E0,0E0,0E0,0E0,0E0,0E0,0E0,0E0,0E0,0E0,0E0,0E0,0E0,0E0,0E0,0E0,0E0],"parents":[2147483647,0,0,1,1,2,2,3,3,4,4,5,5,6,6,7,7,8,8,9,9,10,10,11,11,12,12,13,13,14,14,15,15,16,16,17,17,18,18,19,19,20,20,21,21,24,24,25,25,26,26,27,27,28,28,29,29,30,30],"right_children":[2,4,6,8,10,12,14,16,18,20,22,24,26,28,30,32,34,36,38,40,42,44,-1,-1,46,48,50,52,54,56,58,-1,-1,-1,-1,-1,-1,-1,-1,-1,-1,-1,-1,-1,-1,-1,-1,-1,-1,-1,-1,-1,-1,-1,-1,-1,-1,-1,-1],"split_conditions":[2E0,1.0641E1,3E0,1E0,1E0,7.545E0,8.237E0,7.808E0,7.545E0,3.227E0,3.726E0,5.277E0,3.647E0,6.442E0,1.1627E1,2.781E0,8.899E0,7.47E0,2.931E0,2.921E0,1.4099E1,2.95E0,-7.902372E2,8.960029E3,4.054E0,8.687E0,8.275E0,6.232E0,3.422E0,9.357E0,1E0,-5.485043E3,-4.304132E3,-3.0719644E3,-4.17438E3,-4.9030435E3,-2.7484812E3,-5.190037E3,-6.480494E3,-5.2874584E1,-1.1717264E3,-8.261863E2,2.8992034E3,1.485625E2,2.2068743E3,7.4279023E3,5.309373E3,6.576259E3,7.571197E3,4.9586157E3,5.982108E3,1.5162915E3,-1.6094227E3,2.9231956E3,1.3113605E3,2.7690457E2,-1.1292971E3,1.8457288E3,3.1908743E3],"split_indices":[4,2,4,4,0,2,2,2,2,3,3,2,3,2,2,3,2,2,3,3,2,3,0,0,3,2,2,2,3,2,0,0,0,0,0,0,0,0,0,0,0,0,0,0,0,0,0,0,0,0,0,0,0,0,0,0,0,0,0],"split_type":[0,0,0,0,0,0,0,0,0,0,0,0,0,0,0,0,0,0,0,0,0,0,0,0,0,0,0,0,0,0,0,0,0,0,0,0,0,0,0,0,0,0,0,0,0,0,0,0,0,0,0,0,0,0,0,0,0,0,0],"sum_hessian":[4.126E3,1.726E3,2.4E3,1.615E3,1.11E2,8.15E2,1.585E3,1.161E3,4.54E2,1.05E2,6E0,3.4E2,4.75E2,9.91E2,5.94E2,6.61E2,5E2,1.98E2,2.56E2,3.6E1,6.9E1,5E0,1E0,4.8E1,2.92E2,3.15E2,1.6E2,2.8E2,7.11E2,4.98E2,9.6E1,1.28E2,5.33E2,3.24E2,1.76E2,1.73E2,2.5E1,8.8E1,1.68E2,2E0,3.4E1,6.7E1,2E0,1E0,4E0,2.73E2,1.9E1,2.23E2,9.2E1,1.02E2,5.8E1,2.01E2,7.9E1,3.21E2,3.9E2,3.89E2,1.09E2,8.9E1,7E0],"tree_param":{"num_deleted":"0","num_feature":"6","num_nodes":"59","size_leaf_vector":"1"}},{"base_weights":[3.3343228E3,-4.1927394E5,3.0221244E5,-4.445013E5,-7.030517E4,6.7527694E5,1.10923766E5,-4.0383666E5,-5.4154406E5,-8.058275E4,4.6695418E4,7.6682275E5,6.4187544E5,1.5980136E5,2.8007766E4,-4.5534506E5,-3.35634E5,-4.7144716E5,-5.972038E5,-1.0831452E5,-6.618282E4,-8.8864734E4,1.17487586E5,7.399542E5,8.956745E3,6.890001E5,5.760066E5,6.955121E4,1.9593038E5,-5.265104E3,1.69096E5,-5.332941E3,-4.341106E3,-3.0944731E3,-4.508504E3,-5.6840454E3,-4.149271E3,-5.0553022E3,-6.3981626E3,-2.8017813E2,-1.239615E3,-7.642916E2,3.3577693E3,1.4781937E2,-1.2834093E3,2.2211194E3,-9.604887E2,7.963058E3,6.361275E3,6.6156455E3,7.4209707E3,6.7462817E3,5.446829E3,1.5577932E3,-1.6875933E3,2.7800137E3,1.1145117E3,3.8679004E2,-1.1902137E3,1.9422587E3,1.0754296E3],"categories":[],"categories_nodes":[],"categories_segments":[],"categories_sizes":[],"default_left":[0,0,0,0,0,0,0,0,0,0,0,0,0,0,0,0,0,0,0,0,0,0,0,0,0,0,0,0,0,0,0,0,0,0,0,0,0,0,0,0,0,0,0,0,0,0,0,0,0,0,0,0,0,0,0,0,0,0,0,0,0],"id":25,"left_children":[1,3,5,7,9,11,13,15,17,19,21,23,25,27,29,31,33,35,37,39,41,43,45,47,-1,49,51,53,55,57,59,-1,-1,-1,-1,-1,-1,-1,-1,-1,-1,-1,-1,-1,-1,-1,-1,-1,-1,-1,-1,-1,-1,-1,-1,-1,-1,-1,-1,-1,-1],"loss_changes":[5.1925406E14,1.496125E13,1.7176725E14,6.0478844E12,1.4325088E11,2.0029312E12,6.4515295E12,3.7922716E12,1.5365833E12,3.5560292E10,1.0640648E11,7.465861E10,1.4779888E12,3.2535426E12,2.7799813E12,8.2285534E11,1.3298292E12,9.204442E11,6.7659996E11,4.0500953E10,3.2632226E11,1.8263435E10,1.7772141E11,5.582954E11,0E0,1.4545846E10,4.2955545E11,5.9444203E12,4.926321E12,2.404084E12,1.5390317E11,0E0,0E0,0E0,0E0,0E0,0E0,0E0,0E0,0E0,0E0,0E0,0E0,0E0,0E0,0E0,0E0,0E0,0E0,0E0,0E0,0E0,0E0,0E0,0E0,0E0,0E0,0E0,0E0,0E0,0E0],"parents":[2147483647,0,0,1,1,2,2,3,3,4,4,5,5,6,6,7,7,8,8,9,9,10,10,11,11,12,12,13,13,14,14,15,15,16,16,17,17,18,18,19,19,20,20,21,21,22,22,23,23,25,25,26,26,27,27,28,28,29,29,30,30],"right_children":[2,4,6,8,10,12,14,16,18,20,22,24,26,28,30,32,34,36,38,40,42,44,46,48,-1,50,52,54,56,58,60,-1,-1,-1,-1,-1,-1,-1,-1,-1,-1,-1,-1,-1,-1,-1,-1,-1,-1,-1,-1,-1,-1,-1,-1,-1,-1,-1,-1,-1,-1],"split_conditions":[2E0,1.0641E1,3E0,1E0,1E0,7.147E0,8.237E0,7.808E0,7.545E0,3.227E0,3.153E0,7.082E0,3.542E0,6.442E0,1.0926E1,2.781E0,9.269E0,7.082E0,2.909E0,1.4021E1,1.4099E1,1.4021E1,3.726E0,6.404E0,8.956745E3,8.433E0,7.343E0,6.232E0,3.514E0,9.285E0,3.843E0,-5.332941E3,-4.341106E3,-3.0944731E3,-4.508504E3,-5.6840454E3,-4.149271E3,-5.0553022E3,-6.3981626E3,-2.8017813E2,-1.239615E3,-7.642916E2,3.3577693E3,1.4781937E2,-1.2834093E3,2.2211194E3,-9.604887E2,7.963058E3,6.361275E3,6.6156455E3,7.4209707E3,6.7462817E3,5.446829E3,1.5577932E3,-1.6875933E3,2.7800137E3,1.1145117E3,3.8679004E2,-1.1902137E3,1.9422587E3,1.0754296E3],"split_indices":[4,2,4,4,0,2,2,2,2,3,3,2,3,2,2,3,2,2,3,2,2,2,3,2,0,2,2,2,3,2,3,0,0,0,0,0,0,0,0,0,0,0,0,0,0,0,0,0,0,0,0,0,0,0,0,0,0,0,0,0,0],"split_type":[0,0,0,0,0,0,0,0,0,0,0,0,0,0,0,0,0,0,0,0,0,0,0,0,0,0,0,0,0,0,0,0,0,0,0,0,0,0,0,0,0,0,0,0,0,0,0,0,0,0,0,0,0,0,0,0,0,0,0,0,0],"sum_hessian":[4.109E3,1.702E3,2.407E3,1.587E3,1.15E2,8.15E2,1.592E3,1.122E3,4.65E2,1.06E2,9E0,2.12E2,6.03E2,1.001E3,5.91E2,6.36E2,4.86E2,2.1E2,2.55E2,3.4E1,7.2E1,3E0,6E0,1.81E2,3.1E1,3.46E2,2.57E2,2.87E2,7.14E2,4.79E2,1.12E2,1.31E2,5.05E2,3.99E2,8.7E1,7.4E1,1.36E2,8.5E1,1.7E2,6E0,2.8E1,7.1E1,1E0,1E0,2E0,4E0,2E0,1.13E2,6.8E1,2.37E2,1.09E2,5.7E1,2E2,2.11E2,7.6E1,3.61E2,3.53E2,3.46E2,1.33E2,7.8E1,3.4E1],"tree_param":{"num_deleted":"0","num_feature":"6","num_nodes":"61","size_leaf_vector":"1"}},{"base_weights":[-4.9607898E2,-4.155961E5,2.907725E5,-4.3964288E5,-6.523178E4,6.726327E5,1.02353484E5,-3.99194E5,-5.408658E5,4.7124387E4,-1.0370283E5,7.7092225E5,6.322174E5,1.5014467E5,2.3413465E4,-4.4784866E5,-3.3533912E5,-3.3717444E5,-5.6411706E5,-6.558108E3,1.888607E5,-6.1995766E4,-1.16829484E5,8.622331E5,6.737526E5,7.642611E3,6.106182E5,5.7988805E4,1.8577125E5,-9.915733E3,1.7378097E5,-3.9155125E3,-5.0468345E3,-3.1022083E3,-4.4631997E3,-2.8021836E3,-4.4759365E3,-5.4230376E3,-6.763989E3,-1.3350415E3,3.863215E2,4.637178E2,2.6507969E3,-7.70175E1,-8.187465E2,-1.0458237E3,-1.4550353E3,3.7805095E3,8.762753E3,2.7212412E3,7.0098315E3,5.9314854E3,7.0945815E3,1.4587246E3,-1.7302268E3,3.1820542E3,1.4613395E3,2.934979E2,-1.4367372E3,2.9870435E3,1.265342E3],"categories":[],"categories_nodes":[],"categories_segments":[],"categories_sizes":[],"default_left":[0,0,0,0,0,0,0,0,0,0,0,0,0,0,0,0,0,0,0,0,0,0,0,0,0,0,0,0,0,0,0,0,0,0,0,0,0,0,0,0,0,0,0,0,0,0,0,0,0,0,0,0,0,0,0,0,0,0,0,0,0],"id":26,"left_children":[1,3,5,7,9,11,13,15,17,19,21,23,25,27,29,31,33,35,37,39,41,43,45,47,49,-1,51,53,55,57,59,-1,-1,-1,-1,-1,-1,-1,-1,-1,-1,-1,-1,-1,-1,-1,-1,-1,-1,-1,-1,-1,-1,-1,-1,-1,-1,-1,-1,-1,-1],"loss_changes":[5.0139542E14,1.4378309E13,1.7527262E14,6.335043E12,4.8467994E11,2.7103928E12,6.1572005E12,3.4133581E12,1.9599731E12,2.218926E11,3.819746E10,1.4597772E12,1.1760996E12,3.328239E12,3.093898E12,1.8757599E12,1.2553678E12,1.8273953E11,6.275769E11,1.313655E11,7.459068E10,2.311413E10,6.555697E9,4.5060247E11,1.07789E12,0E0,4.4251585E11,5.8113477E12,3.8012642E12,2.661768E12,6.2325287E11,0E0,0E0,0E0,0E0,0E0,0E0,0E0,0E0,0E0,0E0,0E0,0E0,0E0,0E0,0E0,0E0,0E0,0E0,0E0,0E0,0E0,0E0,0E0,0E0,0E0,0E0,0E0,0E0,0E0,0E0],"parents":[2147483647,0,0,1,1,2,2,3,3,4,4,5,5,6,6,7,7,8,8,9,9,10,10,11,11,12,12,13,13,14,14,15,15,16,16,17,17,18,18,19,19,20,20,21,21,22,22,23,23,24,24,26,26,27,27,28,28,29,29,30,30],"right_children":[2,4,6,8,10,12,14,16,18,20,22,24,26,28,30,32,34,36,38,40,42,44,46,48,50,-1,52,54,56,58,60,-1,-1,-1,-1,-1,-1,-1,-1,-1,-1,-1,-1,-1,-1,-1,-1,-1,-1,-1,-1,-1,-1,-1,-1,-1,-1,-1,-1,-1,-1],"split_conditions":[2E0,1.0641E1,3E0,1E0,5.327E1,5.043E1,8.237E0,7.808E0,4.503E1,5.183E1,6.474E1,7.806E0,6.034E0,6.442E0,1.0926E1,6.307E1,9.269E0,7.489E0,8.572E0,1.289E1,1.289E1,1.289E1,1.418E1,2.34E1,7.838E0,7.642611E3,8.743E0,6.232E0,7.274E0,9.357E0,5.327E1,-3.9155125E3,-5.0468345E3,-3.1022083E3,-4.4631997E3,-2.8021836E3,-4.4759365E3,-5.4230376E3,-6.763989E3,-1.3350415E3,3.863215E2,4.637178E2,2.6507969E3,-7.70175E1,-8.187465E2,-1.0458237E3,-1.4550353E3,3.7805095E3,8.762753E3,2.7212412E3,7.0098315E3,5.9314854E3,7.0945815E3,1.4587246E3,-1.7302268E3,3.1820542E3,1.4613395E3,2.934979E2,-1.4367372E3,2.9870435E3,1.265342E3],"split_indices":[4,2,4,4,5,5,2,2,5,5,5,2,2,2,2,5,2,2,2,2,2,2,2,5,2,0,2,2,2,2,5,0,0,0,0,0,0,0,0,0,0,0,0,0,0,0,0,0,0,0,0,0,0,0,0,0,0,0,0,0,0],"split_type":[0,0,0,0,0,0,0,0,0,0,0,0,0,0,0,0,0,0,0,0,0,0,0,0,0,0,0,0,0,0,0,0,0,0,0,0,0,0,0,0,0,0,0,0,0,0,0,0,0,0,0,0,0,0,0,0,0,0,0,0,0],"sum_hessian":[4.145E3,1.709E3,2.436E3,1.599E3,1.1E2,8.04E2,1.632E3,1.146E3,4.53E2,2.8E1,8.2E1,2.29E2,5.75E2,1.016E3,6.16E2,6.47E2,4.99E2,4.8E1,4.05E2,2.1E1,7E0,2.1E1,6.1E1,1.14E2,1.15E2,7.6E1,4.99E2,2.84E2,7.32E2,5.05E2,1.11E2,3.29E2,3.18E2,4.1E2,8.9E1,3.4E1,1.4E1,3.44E2,6.1E1,5E0,1.6E1,3E0,4E0,6E0,1.5E1,4.6E1,1.5E1,4E0,1.1E2,8E0,1.07E2,4.3E2,6.9E1,2.06E2,7.8E1,1.67E2,5.65E2,3.91E2,1.14E2,2.9E1,8.2E1],"tree_param":{"num_deleted":"0","num_feature":"6","num_nodes":"61","size_leaf_vector":"1"}},{"base_weights":[-2.631471E3,-4.128433E5,2.9084475E5,-3.2332938E5,-4.7281662E5,6.608304E5,1.05901664E5,-2.5030752E5,-6.7756167E3,-4.2416575E5,-5.0727338E5,6.915362E5,5.6726556E5,6.0622383E4,1.8877895E5,-1.1439923E5,-3.381028E5,-4.6447144E3,-4.082828E5,-5.0913972E5,-2.785663E3,5.542627E3,7.0563875E5,5.2817425E5,6.9563486E3,-4.197837E4,7.9518016E4,3.073116E5,1.531119E5,-1.6410092E3,-7.905104E2,-3.649678E3,-1.8219182E3,-3.8360513E3,-4.397759E3,-5.6850024E3,-4.990429E3,6.91071E3,8.360235E3,5.406538E3,3.1111711E3,-1.7195554E3,-9.66108E1,9.801312E2,-1.6122427E2,2.18375E3,3.590556E3,-2.8705518E2,1.981263E3],"categories":[],"categories_nodes":[],"categories_segments":[],"categories_sizes":[],"default_left":[0,0,0,0,0,0,0,0,0,0,0,0,0,0,0,0,0,0,0,0,0,0,0,0,0,0,0,0,0,0,0,0,0,0,0,0,0,0,0,0,0,0,0,0,0,0,0,0,0],"id":27,"left_children":[1,3,5,7,9,11,13,15,-1,17,19,21,23,25,27,29,31,-1,33,35,-1,-1,37,39,-1,41,43,45,47,-1,-1,-1,-1,-1,-1,-1,-1,-1,-1,-1,-1,-1,-1,-1,-1,-1,-1,-1,-1],"loss_changes":[4.9274542E14,9.011076E12,1.6319513E14,1.7626688E13,1.4947157E12,1.8917318E12,5.9627316E12,6.7864845E12,0E0,8.499338E10,1.1084707E11,7.588335E11,6.462416E11,2.0021442E12,2.3289188E12,3.8407897E11,1.3869347E12,0E0,7.688579E10,6.7528294E10,0E0,0E0,4.384222E11,2.6249213E11,0E0,6.746209E11,1.542275E12,5.1524193E11,3.5577177E12,0E0,0E0,0E0,0E0,0E0,0E0,0E0,0E0,0E0,0E0,0E0,0E0,0E0,0E0,0E0,0E0,0E0,0E0,0E0,0E0],"parents":[2147483647,0,0,1,1,2,2,3,3,4,4,5,5,6,6,7,7,9,9,10,10,11,11,12,12,13,13,14,14,15,15,16,16,18,18,19,19,22,22,23,23,25,25,26,26,27,27,28,28],"right_children":[2,4,6,8,10,12,14,16,-1,18,20,22,24,26,28,30,32,-1,34,36,-1,-1,38,40,-1,42,44,46,48,-1,-1,-1,-1,-1,-1,-1,-1,-1,-1,-1,-1,-1,-1,-1,-1,-1,-1,-1,-1],"split_conditions":[2E0,1.8167726E2,3E0,1E0,2.1163943E2,3.749E0,2.0387703E2,1.3158661E2,-6.7756167E3,1.9309305E2,3.936E0,1.2643642E2,1.9283131E2,2.836E0,2.1347252E2,3.161E0,1.3989331E2,-4.6447144E3,2.0926915E2,2.728E0,-2.785663E3,5.542627E3,1E0,1.9113388E2,6.9563486E3,1.266072E2,1.389117E2,2.1133337E2,3.017E0,-1.6410092E3,-7.905104E2,-3.649678E3,-1.8219182E3,-3.8360513E3,-4.397759E3,-5.6850024E3,-4.990429E3,6.91071E3,8.360235E3,5.406538E3,3.1111711E3,-1.7195554E3,-9.66108E1,9.801312E2,-1.6122427E2,2.18375E3,3.590556E3,-2.8705518E2,1.981263E3],"split_indices":[4,1,4,4,1,3,1,1,0,1,3,1,1,3,1,3,1,0,1,3,0,0,0,1,0,1,1,1,3,0,0,0,0,0,0,0,0,0,0,0,0,0,0,0,0,0,0,0,0],"split_type":[0,0,0,0,0,0,0,0,0,0,0,0,0,0,0,0,0,0,0,0,0,0,0,0,0,0,0,0,0,0,0,0,0,0,0,0,0,0,0,0,0,0,0,0,0,0,0,0,0],"sum_hessian":[4.091E3,1.706E3,2.385E3,6.87E2,1.019E3,7.94E2,1.591E3,5.71E2,1.16E2,4.28E2,5.91E2,5.93E2,2.01E2,1.03E3,5.61E2,2.25E2,3.46E2,1.13E2,3.15E2,5.85E2,6E0,5.9E1,5.34E2,1.58E2,4.3E1,1.6E2,8.7E2,1.28E2,4.33E2,9.2E1,1.33E2,2.94E2,5.2E1,1.84E2,1.31E2,7.7E1,5.08E2,4.86E2,4.8E1,1.48E2,1E1,3.1E1,1.29E2,7.29E2,1.41E2,4.9E1,7.9E1,8.6E1,3.47E2],"tree_param":{"num_deleted":"0","num_feature":"6","num_nodes":"49","size_leaf_vector":"1"}},{"base_weights":[5.755563E3,-4.0571334E5,2.958354E5,-4.2922403E5,-7.011734E4,6.598502E5,1.06517695E5,-3.9200297E5,-5.225598E5,-8.179239E4,5.9482336E4,7.232319E5,6.033428E5,1.5159394E5,2.0403945E4,-2.86303E5,-4.6515344E5,-6.7191494E3,-4.7081012E5,-1.263068E5,-6.776631E4,-9.987321E2,1.5045362E5,8.621957E3,7.0114256E5,3.9332728E5,6.1909506E5,5.73771E4,1.8584686E5,-1.2470147E4,1.7737066E5,-2.4384934E3,-4.4306562E3,-5.0440474E3,-3.4420156E3,-3.2561106E3,-5.0631606E3,-9.6166046E2,-1.484337E3,-7.7574414E2,3.26554E2,8.800103E2,-8.974881E2,2.42499E3,3.893883E2,7.14749E3,5.70031E3,1.9612792E3,4.2056416E3,5.669508E3,6.778608E3,1.5485526E3,-1.7937578E3,6.8321234E2,2.8948062E3,-1.1909099E3,2.6481882E2,1.6306337E3,3.143678E3],"categories":[],"categories_nodes":[],"categories_segments":[],"categories_sizes":[],"default_left":[0,0,0,0,0,0,0,0,0,0,0,0,0,0,0,0,0,0,0,0,0,0,0,0,0,0,0,0,0,0,0,0,0,0,0,0,0,0,0,0,0,0,0,0,0,0,0,0,0,0,0,0,0,0,0,0,0,0,0],"id":28,"left_children":[1,3,5,7,9,11,13,15,17,19,21,23,25,27,29,31,33,-1,35,37,39,41,43,-1,45,47,49,51,53,55,57,-1,-1,-1,-1,-1,-1,-1,-1,-1,-1,-1,-1,-1,-1,-1,-1,-1,-1,-1,-1,-1,-1,-1,-1,-1,-1,-1,-1],"loss_changes":[4.9736892E14,1.3564547E13,1.6835664E14,5.3884056E12,1.7735647E11,2.5577872E12,6.2425357E12,8.797284E12,3.208114E12,5.699882E10,5.517067E10,5.8956815E11,1.2385612E12,3.3972646E12,2.8609282E12,3.0531513E12,3.0594428E12,0E0,1.5983066E12,1.7318543E9,8.329875E10,6.318914E10,3.161505E10,0E0,2.0089038E11,1.0013272E11,8.873805E11,6.558918E12,9.407249E12,1.909426E12,1.36903655E11,0E0,0E0,0E0,0E0,0E0,0E0,0E0,0E0,0E0,0E0,0E0,0E0,0E0,0E0,0E0,0E0,0E0,0E0,0E0,0E0,0E0,0E0,0E0,0E0,0E0,0E0,0E0,0E0],"parents":[2147483647,0,0,1,1,2,2,3,3,4,4,5,5,6,6,7,7,8,8,9,9,10,10,11,11,12,12,13,13,14,14,15,15,16,16,18,18,19,19,20,20,21,21,22,22,24,24,25,25,26,26,27,27,28,28,29,29,30,30],"right_children":[2,4,6,8,10,12,14,16,18,20,22,24,26,28,30,32,34,-1,36,38,40,42,44,-1,46,48,50,52,54,56,58,-1,-1,-1,-1,-1,-1,-1,-1,-1,-1,-1,-1,-1,-1,-1,-1,-1,-1,-1,-1,-1,-1,-1,-1,-1,-1,-1,-1],"split_conditions":[2E0,1.0641E1,3E0,1E0,1E0,7.806E0,8.283E0,1.8167726E2,1.3158661E2,1.2643642E2,1.2960606E2,5.277E0,7.856E0,6.442E0,1.1627E1,9.269E0,7.598E0,-6.7191494E3,2.0926915E2,1.2614547E2,1.418E1,1.2673133E2,1.2985553E2,8.621957E3,2.1908669E2,1.3706326E2,1.8167726E2,6.232E0,2.1012868E2,1.3114996E2,1E0,-2.4384934E3,-4.4306562E3,-5.0440474E3,-3.4420156E3,-3.2561106E3,-5.0631606E3,-9.6166046E2,-1.484337E3,-7.7574414E2,3.26554E2,8.800103E2,-8.974881E2,2.42499E3,3.893883E2,7.14749E3,5.70031E3,1.9612792E3,4.2056416E3,5.669508E3,6.778608E3,1.5485526E3,-1.7937578E3,6.8321234E2,2.8948062E3,-1.1909099E3,2.6481882E2,1.6306337E3,3.143678E3],"split_indices":[4,2,4,4,0,2,2,1,1,1,1,2,2,2,2,2,2,0,1,1,2,1,1,0,1,1,1,2,1,1,0,0,0,0,0,0,0,0,0,0,0,0,0,0,0,0,0,0,0,0,0,0,0,0,0,0,0,0,0],"split_type":[0,0,0,0,0,0,0,0,0,0,0,0,0,0,0,0,0,0,0,0,0,0,0,0,0,0,0,0,0,0,0,0,0,0,0,0,0,0,0,0,0,0,0,0,0,0,0,0,0,0,0,0,0,0,0,0,0,0,0],"sum_hessian":[4.165E3,1.722E3,2.443E3,1.609E3,1.13E2,8.35E2,1.608E3,1.154E3,4.55E2,1.04E2,9E0,3.88E2,4.47E2,1.055E3,5.53E2,4.74E2,6.8E2,1.14E2,3.41E2,2.3E1,8.1E1,6E0,3E0,4.8E1,3.4E2,3.3E1,4.14E2,2.82E2,7.73E2,4.58E2,9.5E1,3.75E2,9.9E1,5.11E2,1.69E2,6.9E1,2.72E2,1.2E1,1.1E1,7.4E1,7E0,3E0,3E0,1E0,2E0,3.04E2,3.6E1,5E0,2.8E1,2.25E2,1.89E2,2E2,8.2E1,3.63E2,4.1E2,1.22E2,3.36E2,8.8E1,7E0],"tree_param":{"num_deleted":"0","num_feature":"6","num_nodes":"59","size_leaf_vector":"1"}},{"base_weights":[8.4768274E2,-4.033209E5,2.8997044E5,-4.252756E5,-8.9529016E4,6.560558E5,1.1003119E5,-3.894798E5,-5.1481353E5,-4.8821453E4,-1.1536987E5,7.2506256E5,6.038476E5,1.6280389E5,2.4683916E4,-4.387235E5,-3.2454978E5,-3.230701E5,-5.3863475E5,-6.678621E4,6.0808777E4,-1.043661E3,-1.4288926E3,8.4415006E5,6.726997E5,5.714851E5,7.334233E5,8.9872875E4,1.8914738E5,-6.2893926E3,1.8549828E5,-3.97471E3,-5.24656E3,-2.832007E3,-4.0019514E3,-2.6162144E3,-4.3780703E3,-5.170737E3,-6.5399307E3,-1.1740834E3,-5.43997E2,-3.232401E2,1.957605E3,3.0714502E3,8.520559E3,7.4787944E3,6.3305835E3,5.8056113E3,3.173766E3,7.671936E3,4.795799E3,1.8188798E3,-1.5257043E3,3.2051443E3,1.4737363E3,2.7614322E2,-1.2076841E3,3.0330317E3,1.2817574E3],"categories":[],"categories_nodes":[],"categories_segments":[],"categories_sizes":[],"default_left":[0,0,0,0,0,0,0,0,0,0,0,0,0,0,0,0,0,0,0,0,0,0,0,0,0,0,0,0,0,0,0,0,0,0,0,0,0,0,0,0,0,0,0,0,0,0,0,0,0,0,0,0,0,0,0,0,0,0,0],"id":29,"left_children":[1,3,5,7,9,11,13,15,17,19,21,23,25,27,29,31,33,35,37,39,41,-1,-1,43,45,47,49,51,53,55,57,-1,-1,-1,-1,-1,-1,-1,-1,-1,-1,-1,-1,-1,-1,-1,-1,-1,-1,-1,-1,-1,-1,-1,-1,-1,-1,-1,-1],"loss_changes":[4.8307588E14,1.1838876E13,1.5868205E14,4.962902E12,1.1428613E11,2.4227642E12,7.278961E12,3.5506126E12,1.9133576E12,9.4657266E10,5.981602E9,1.5336053E12,1.5014098E12,1.902335E12,3.0843766E12,2.109844E12,1.4568496E12,2.5913301E11,6.6917604E11,1.8694275E10,9.430678E10,0E0,0E0,1.5859502E11,2.3882367E11,6.7138224E11,3.864422E11,5.9841063E12,3.9752418E12,2.0215923E12,6.3641145E11,0E0,0E0,0E0,0E0,0E0,0E0,0E0,0E0,0E0,0E0,0E0,0E0,0E0,0E0,0E0,0E0,0E0,0E0,0E0,0E0,0E0,0E0,0E0,0E0,0E0,0E0,0E0,0E0],"parents":[2147483647,0,0,1,1,2,2,3,3,4,4,5,5,6,6,7,7,8,8,9,9,10,10,11,11,12,12,13,13,14,14,15,15,16,16,17,17,18,18,19,19,20,20,23,23,24,24,25,25,26,26,27,27,28,28,29,29,30,30],"right_children":[2,4,6,8,10,12,14,16,18,20,22,24,26,28,30,32,34,36,38,40,42,-1,-1,44,46,48,50,52,54,56,58,-1,-1,-1,-1,-1,-1,-1,-1,-1,-1,-1,-1,-1,-1,-1,-1,-1,-1,-1,-1,-1,-1,-1,-1,-1,-1,-1,-1],"split_conditions":[2E0,1.0641E1,3E0,1E0,6.45E1,7.545E0,8.237E0,7.808E0,4.503E1,1E0,1.418E1,5.043E1,8.687E0,6.442E0,1.1627E1,7.101E1,8.899E0,7.489E0,8.572E0,4.822E1,5.142E1,-1.043661E3,-1.4288926E3,2.34E1,6.034E0,8.659E0,8.307E1,6.232E0,7.274E0,9.357E0,5.519E1,-3.97471E3,-5.24656E3,-2.832007E3,-4.0019514E3,-2.6162144E3,-4.3780703E3,-5.170737E3,-6.5399307E3,-1.1740834E3,-5.43997E2,-3.232401E2,1.957605E3,3.0714502E3,8.520559E3,7.4787944E3,6.3305835E3,5.8056113E3,3.173766E3,7.671936E3,4.795799E3,1.8188798E3,-1.5257043E3,3.2051443E3,1.4737363E3,2.7614322E2,-1.2076841E3,3.0330317E3,1.2817574E3],"split_indices":[4,2,4,4,5,2,2,2,5,0,2,5,2,2,2,5,2,2,2,5,5,0,0,5,2,2,5,2,2,2,5,0,0,0,0,0,0,0,0,0,0,0,0,0,0,0,0,0,0,0,0,0,0,0,0,0,0,0,0],"split_type":[0,0,0,0,0,0,0,0,0,0,0,0,0,0,0,0,0,0,0,0,0,0,0,0,0,0,0,0,0,0,0,0,0,0,0,0,0,0,0,0,0,0,0,0,0,0,0,0,0,0,0,0,0,0,0,0,0,0,0],"sum_hessian":[4.132E3,1.723E3,2.409E3,1.61E3,1.13E2,7.93E2,1.616E3,1.154E3,4.56E2,4.5E1,6.8E1,3.36E2,4.57E2,9.98E2,6.18E2,6.53E2,5.01E2,5.2E1,4.04E2,3.9E1,6E0,5.2E1,1.6E1,9.8E1,2.38E2,3.7E2,8.7E1,2.66E2,7.32E2,5.19E2,9.9E1,4.45E2,2.08E2,3.27E2,1.74E2,3.6E1,1.6E1,3.45E2,5.9E1,6E0,3.3E1,4E0,2E0,2E0,9.6E1,7.6E1,1.62E2,3.56E2,1.4E1,7.5E1,1.2E1,1.93E2,7.3E1,1.75E2,5.57E2,4.01E2,1.18E2,3.1E1,6.8E1],"tree_param":{"num_deleted":"0","num_feature":"6","num_nodes":"59","size_leaf_vector":"1"}},{"base_weights":[-2.2028706E3,-3.9982134E5,2.8485594E5,-4.218272E5,-7.310096E4,6.399349E5,1.0691451E5,-3.8315656E5,-5.177984E5,-9.342736E4,-3.0472453E4,7.420172E5,6.03799E5,1.5635114E5,2.4918701E4,-2.7939075E5,-4.5369125E5,-6.5893154E3,-4.6898556E5,-2.078823E3,-1.00016695E5,1.1227585E5,-5.1177574E4,7.738005E5,5.603416E3,5.427106E5,6.7221706E5,5.6140258E4,1.9601827E5,-4.3857627E3,2.0252088E5,-2.3955054E3,-4.301211E3,-4.9421987E3,-3.3788364E3,-3.0605225E3,-5.055856E3,-2.7903906E2,8.666975E1,-1.100638E3,-4.8270398E2,2.2766882E3,-4.0542416E2,-1.5713889E3,-3.5343478E2,8.690359E3,7.17228E3,5.776288E3,4.474451E3,7.2988716E3,6.1740854E3,1.5074521E3,-1.6600712E3,7.727666E2,2.8867515E3,-1.4006456E3,2.4607562E2,1.1470497E3,2.22788E3],"categories":[],"categories_nodes":[],"categories_segments":[],"categories_sizes":[],"default_left":[0,0,0,0,0,0,0,0,0,0,0,0,0,0,0,0,0,0,0,0,0,0,0,0,0,0,0,0,0,0,0,0,0,0,0,0,0,0,0,0,0,0,0,0,0,0,0,0,0,0,0,0,0,0,0,0,0,0,0],"id":30,"left_children":[1,3,5,7,9,11,13,15,17,19,21,23,25,27,29,31,33,-1,35,37,39,41,43,45,-1,47,49,51,53,55,57,-1,-1,-1,-1,-1,-1,-1,-1,-1,-1,-1,-1,-1,-1,-1,-1,-1,-1,-1,-1,-1,-1,-1,-1,-1,-1,-1,-1],"loss_changes":[4.6934295E14,1.2364305E13,1.5081325E14,5.7952866E12,9.246638E10,2.4919534E12,6.449428E12,8.3268007E12,2.8668487E12,4.433458E10,1.1510399E11,7.4435474E11,2.1178383E12,3.9362494E12,3.12361E12,2.7193728E12,3.0527654E12,0E0,1.9085845E12,1.906909E9,3.0560354E10,9.740101E10,4.981362E10,2.980053E11,0E0,8.026891E11,4.2174566E11,5.9726213E12,7.8002793E12,2.033277E12,1.257261E11,0E0,0E0,0E0,0E0,0E0,0E0,0E0,0E0,0E0,0E0,0E0,0E0,0E0,0E0,0E0,0E0,0E0,0E0,0E0,0E0,0E0,0E0,0E0,0E0,0E0,0E0,0E0,0E0],"parents":[2147483647,0,0,1,1,2,2,3,3,4,4,5,5,6,6,7,7,8,8,9,9,10,10,11,11,12,12,13,13,14,14,15,15,16,16,18,18,19,19,20,20,21,21,22,22,23,23,25,25,26,26,27,27,28,28,29,29,30,30],"right_children":[2,4,6,8,10,12,14,16,18,20,22,24,26,28,30,32,34,-1,36,38,40,42,44,46,-1,48,50,52,54,56,58,-1,-1,-1,-1,-1,-1,-1,-1,-1,-1,-1,-1,-1,-1,-1,-1,-1,-1,-1,-1,-1,-1,-1,-1,-1,-1,-1,-1],"split_conditions":[2E0,1.0641E1,3E0,1E0,1.2980519E2,7.147E0,8.237E0,1.8167726E2,